tree
version=v4
num_class=1
num_tree_per_iteration=1
label_index=0
max_feature_idx=3
objective=binary sigmoid:1
feature_names=same_college same_branch shared_skills shared_interests
feature_infos=[0:1] [0:1] [0:6] [0:4]
tree_sizes=1737 1757 1756 1748 1755 1747 1745 1751 1752 1750 1754 1756 1757 1740 1748 1748 1748 1750 1756 1753 1745 1747 1754 1750 1747 1750 1752 1760 1756 1758 1749 1748 1747 1760 1751 1749 1752 1756 1748 1754 1757 1755 1760 1749 1756 1752 1751 1753 1750 1756 1755 1756 1757 1751 1756 1758 1755 1747 1759 1750 1755 1760 1755 1752 1761 1745 1751 1747 1750 1751 1754 1753 1755 1760 1752 1753 1749 1752 1748 1748 1751 1755 1754 1759 1749 1755 1757 1752 1763 1765 1755 1755 1757 1759 1755 1758 1761 1762 1757 1761 1764 1759 1760 1762 1758 1763 1761 1760 1769 1761 1771 1779 1774 1781 1773 1774 1771 1780 1777 1784 1784 1776 1779 1775 1776 1778 1774 1781 1786 1786 1783 1783 1780 1799 1789 1792 1799 1793 1793 1783 1791 1796 1791 1789 1793 1791 1801 1795 1797 1795 1793 1791 1796 1797 1796 1803 1802 1798 1799 1804 1813 1807 1807 1802 1804 1811 1815 1810 1819 1811 1821 1823 1823 1822 1829 1822 1827 1828 1824 1826 1829 1819 1819 1831 1825 1826 1833 1829 1828 1831 1832 1841 1842 1834 1840 1833 1837 1834 1834 1841 1836 1834 1839 1839 1840 1832 1834 1839 1843 1844 1849 1846 1849 1846 1847 1848 1852 1861 1850 1855 1852 1865 1863 1871 1864 1861 1853 1853 1868 1859 1856 1862 1868 1871 1869 1865 1868 1868 1868 1871 1869 1867 1867 1874 1872 1874 1864 1870 1869 1870 1872 1877 1875 1886 1888 1871 1873 1878 1768 1878 1546 1888 1428 1887 1891 1878 1889 1539 1653 1425 1318 966 967 1085 1199 1206 1204 1085 965 1202 1083 965 1089 967 970 965 970 855 848 858 963 850 849 968 856 855 731 855 856 731

Tree=0
num_leaves=15
num_cat=0
split_feature=2 0 3 3 2 1 0 2 1 3 2 1 2 3
split_gain=1516.5 1297.48 743.372 509.168 412.99 292.912 358.986 197.603 142.601 182.629 218.601 89.9801 82.4038 188.348
threshold=1.5000000000000002 1.0000000180025095e-35 1.5000000000000002 1.0000000180025095e-35 2.5000000000000004 1.0000000180025095e-35 1.0000000180025095e-35 1.0000000180025095e-35 1.0000000180025095e-35 1.0000000180025095e-35 1.0000000180025095e-35 1.0000000180025095e-35 1.0000000180025095e-35 1.0000000180025095e-35
decision_type=2 2 2 2 2 2 2 2 2 2 2 2 2 2
left_child=1 2 8 4 5 6 -2 11 -1 -10 -11 -4 13 -3
right_child=3 12 7 -5 -6 -7 -8 -9 9 10 -12 -13 -14 -15
leaf_value=-0.055871959097611619 -0.055871959097611619 -0.024946151103117382 -0.030294223162315635 0.14423621027852757 0.14423621027852757 0.14423621027852757 0.14423621027852757 0.14423621027852757 -0.055871959097611619 -0.055871959097611619 0.14423621027852757 0.14423621027852757 0.14423621027852757 0.14423621027852757
leaf_weight=519.96877650916576 121.43432262539864 27.48513475060463 33.232026562094688 368.30080565810204 85.703647449612617 33.731756284832954 27.48513475060463 71.961080074310303 60.467296451330185 21.988107800483704 35.980540037155151 9.4948647320270521 128.43053874373436 40.977837264537811
leaf_count=2081 486 110 133 1474 343 135 110 288 242 88 144 38 514 164
internal_value=0.0463565 0.00633947 -0.0235386 0.106068 0.0536845 0.0111958 -0.0189392 0.0936642 -0.0445938 0.0049204 0.0683331 0.00849032 0.120619 0.0763163
internal_weight=1586.64 949.986 753.093 636.656 268.355 182.651 148.919 114.688 638.405 118.436 57.9686 42.7269 196.894 68.463
internal_count=6350 3802 3014 2548 1074 731 596 459 2555 474 232 171 788 274
is_linear=0
shrinkage=1


Tree=1
num_leaves=15
num_cat=0
split_feature=2 0 3 3 2 1 0 2 1 3 2 1 2 3
split_gain=1372.72 1172.97 670.971 462.388 374.262 265.019 324.321 179.233 128.363 164.804 197.873 81.3279 74.9557 170.583
threshold=1.5000000000000002 1.0000000180025095e-35 1.5000000000000002 1.0000000180025095e-35 2.5000000000000004 1.0000000180025095e-35 1.0000000180025095e-35 1.0000000180025095e-35 1.0000000180025095e-35 1.0000000180025095e-35 1.0000000180025095e-35 1.0000000180025095e-35 1.0000000180025095e-35 1.0000000180025095e-35
decision_type=2 2 2 2 2 2 2 2 2 2 2 2 2 2
left_child=1 2 8 4 5 6 -2 11 -1 -10 -11 -4 13 -3
right_child=3 12 7 -5 -6 -7 -8 -9 9 10 -12 -13 -14 -15
leaf_value=-0.097283008423341977 -0.097283008423341977 -0.067854220892525949 -0.072938228603221369 0.093284160539390079 0.093284160539390079 0.093284160539390079 0.093284160539390079 0.093284160539390079 -0.097283008423341977 -0.097283008423341977 0.093284160539390079 0.093284160539390079 0.093284160539390079 0.093284160539390079
leaf_weight=519.84421208500862 121.40523165464401 27.495721876621246 33.242371842265129 366.59004935622215 85.30555422604084 33.57507236301899 27.357466369867325 71.626821041107178 60.452810823917389 21.982840299606323 35.813410520553589 9.4507611095905286 127.83397921919823 40.787495315074921
leaf_count=2081 486 110 133 1474 343 135 110 288 242 88 144 38 514 164
internal_value=-0.000139042 -0.0382151 -0.0666019 0.0568057 0.00684131 -0.0336004 -0.0622377 0.0449494 -0.0865873 -0.039567 0.0208018 -0.0361424 0.0706925 0.0283983
internal_weight=1582.76 948.53 752.413 634.233 267.643 182.338 148.763 114.32 638.093 118.249 57.7963 42.6931 196.117 68.2832
internal_count=6350 3802 3014 2548 1074 731 596 459 2555 474 232 171 788 274
is_linear=0
shrinkage=0.05


Tree=2
num_leaves=15
num_cat=0
split_feature=2 0 3 3 2 1 0 2 1 3 2 1 2 3
split_gain=1248.35 1065.44 608.799 421.696 340.711 240.93 294.468 163.303 116.183 149.485 179.956 73.762 68.5595 155.107
threshold=1.5000000000000002 1.0000000180025095e-35 1.5000000000000002 1.0000000180025095e-35 2.5000000000000004 1.0000000180025095e-35 1.0000000180025095e-35 1.0000000180025095e-35 1.0000000180025095e-35 1.0000000180025095e-35 1.0000000180025095e-35 1.0000000180025095e-35 1.0000000180025095e-35 1.0000000180025095e-35
decision_type=2 2 2 2 2 2 2 2 2 2 2 2 2 2
left_child=1 2 8 4 5 6 -2 11 -1 -10 -11 -4 13 -3
right_child=3 12 7 -5 -6 -7 -8 -9 9 10 -12 -13 -14 -15
leaf_value=-0.092899834140885276 -0.092899834140885276 -0.064593083464027021 -0.069463787594345003 0.089429037336972869 0.089429037336972869 0.089429037336972869 0.089429037336972869 0.089429037336972869 -0.092899834140885276 -0.092899834140885276 0.089429037336972869 0.089429037336972869 0.089429037336972869 0.089429037336972869
leaf_weight=517.2110869884491 120.79028749465942 27.440878301858902 33.161571636795998 363.35117000341415 84.551866561174393 33.278431445360184 27.115758955478668 70.993987083435059 60.146604061126709 21.871492385864258 35.496993541717529 9.3672621846199018 126.70454639196396 40.427131533622742
leaf_count=2081 486 110 133 1474 343 135 110 288 242 88 144 38 514 164
internal_value=-0.00012829 -0.0365253 -0.0636295 0.0544203 0.00655156 -0.0321242 -0.0594733 0.0430143 -0.0827031 -0.037825 0.0199169 -0.0344666 0.0677071 0.0271537
internal_weight=1571.91 942.822 748.249 629.088 265.736 181.184 147.906 113.523 634.726 117.515 57.3685 42.5288 194.573 67.868
internal_count=6350 3802 3014 2548 1074 731 596 459 2555 474 232 171 788 274
is_linear=0
shrinkage=0.05


Tree=3
num_leaves=15
num_cat=0
split_feature=2 0 3 3 2 1 0 2 1 3 2 1 2 3
split_gain=1139.81 971.728 554.88 386.012 311.393 219.935 268.514 149.37 105.654 136.191 164.33 67.1 63.0126 141.521
threshold=1.5000000000000002 1.0000000180025095e-35 1.5000000000000002 1.0000000180025095e-35 2.5000000000000004 1.0000000180025095e-35 1.0000000180025095e-35 1.0000000180025095e-35 1.0000000180025095e-35 1.0000000180025095e-35 1.0000000180025095e-35 1.0000000180025095e-35 1.0000000180025095e-35 1.0000000180025095e-35
decision_type=2 2 2 2 2 2 2 2 2 2 2 2 2 2
left_child=1 2 8 4 5 6 -2 11 -1 -10 -11 -4 13 -3
right_child=3 12 7 -5 -6 -7 -8 -9 9 10 -12 -13 -14 -15
leaf_value=-0.089093969975833576 -0.089093969975833576 -0.061617480638265956 -0.06631467169181364 0.086056010838398464 0.086056010838398464 0.086056010838398464 0.086056010838398464 0.086056010838398464 -0.089093969975833576 -0.089093969975833576 0.086056010838398464 0.086056010838398464 0.086056010838398464 0.086056010838398464
leaf_weight=512.45441289246082 119.67940637469292 27.330387979745865 33.003314614295959 358.82505020499229 83.498637869954109 32.863895371556282 26.777988821268082 70.109643459320068 59.593449264764786 21.670345187187195 35.054821729660034 9.2505779564380628 125.1262386739254 39.923546969890594
leaf_count=2081 486 110 133 1474 343 135 110 288 242 88 144 38 514 164
internal_value=-0.000119136 -0.03505 -0.0610403 0.052336 0.00629857 -0.0308395 -0.0570699 0.0413018 -0.0793292 -0.0363092 0.0191446 -0.0329564 0.0650769 0.026045
internal_weight=1555.16 933.517 741.137 621.645 262.82 179.321 146.457 112.364 628.773 116.319 56.7252 42.2539 192.38 67.2539
internal_count=6350 3802 3014 2548 1074 731 596 459 2555 474 232 171 788 274
is_linear=0
shrinkage=0.05


Tree=4
num_leaves=15
num_cat=0
split_feature=2 0 3 3 2 1 0 2 1 3 2 1 2 3
split_gain=1044.35 889.407 507.716 354.498 285.578 201.492 245.762 137.094 96.4719 124.556 150.595 61.1984 58.1612 129.515
threshold=1.5000000000000002 1.0000000180025095e-35 1.5000000000000002 1.0000000180025095e-35 2.5000000000000004 1.0000000180025095e-35 1.0000000180025095e-35 1.0000000180025095e-35 1.0000000180025095e-35 1.0000000180025095e-35 1.0000000180025095e-35 1.0000000180025095e-35 1.0000000180025095e-35 1.0000000180025095e-35
decision_type=2 2 2 2 2 2 2 2 2 2 2 2 2 2
left_child=1 2 8 4 5 6 -2 11 -1 -10 -11 -4 13 -3
right_child=3 12 7 -5 -6 -7 -8 -9 9 10 -12 -13 -14 -15
leaf_value=-0.085761580270741114 -0.085761580270741114 -0.05888443073313529 -0.063439574201700363 0.083082934902709224 0.083082934902709224 0.083082934902709224 0.083082934902709224 0.083082934902709224 -0.085761580270741114 -0.085761580270741114 0.083082934902709224 0.083082934902709224 0.083082934902709224 0.083082934902709224
leaf_weight=505.90998968482018 118.15101152658463 27.172853052616119 32.779622703790665 353.2220861017704 82.194827362895012 32.350733801722527 26.359857171773911 69.014898777008057 58.832396686077118 21.393598794937134 34.507449388504028 9.1061324775218946 123.17242351174355 39.300150692462921
leaf_count=2081 486 110 133 1474 343 135 110 288 242 88 144 38 514 164
internal_value=-0.00011124 -0.0337513 -0.0587661 0.0505011 0.00607597 -0.0297123 -0.0549631 0.0397743 -0.0763739 -0.0349796 0.0184653 -0.031585 0.0627415 0.0250495
internal_weight=1533.47 921.19 731.544 612.279 259.056 176.862 144.511 110.901 620.643 114.733 55.901 41.8858 189.645 66.473
internal_count=6350 3802 3014 2548 1074 731 596 459 2555 474 232 171 788 274
is_linear=0
shrinkage=0.05


Tree=5
num_leaves=15
num_cat=0
split_feature=2 0 3 3 2 0 1 2 1 3 2 3 1 2
split_gain=971.358 818.456 477.447 316.44 256.165 186.502 224.814 131.022 85.8393 106.571 137.496 57.8843 69.263 48.1755
threshold=1.5000000000000002 1.0000000180025095e-35 1.5000000000000002 1.0000000180025095e-35 2.5000000000000004 1.0000000180025095e-35 1.0000000180025095e-35 1.0000000180025095e-35 1.0000000180025095e-35 1.0000000180025095e-35 1.0000000180025095e-35 2.5000000000000004 1.0000000180025095e-35 1.0000000180025095e-35
decision_type=2 2 2 2 2 2 2 2 2 2 2 2 2 2
left_child=1 2 8 4 5 6 -2 11 -1 -10 -11 12 -4 -3
right_child=3 13 7 -5 -6 -7 -8 -9 9 10 -12 -13 -14 -15
leaf_value=-0.08282245130074474 -0.08282245130074474 0.026668141404489504 -0.086950256629684031 0.080445387565048598 0.080445387565048598 0.080445387565048598 0.080445387565048598 0.080445387565048598 -0.08282245130074474 -0.08282245130074474 0.080445387565048598 0.11071993904416205 0.080445387565048598 0.080445387565048598
leaf_weight=499.78507216274738 113.88113659620285 63.856613025069237 30.301728308200836 347.43193513154984 80.683245599269867 32.461480736732483 25.875093340873718 69.392295777797699 55.026599615812302 21.292901590466499 32.696708858013153 6.307884916663169 7.7625280022621146 119.73111373186111
leaf_count=2089 476 267 124 1477 343 138 110 295 230 89 139 26 33 509
internal_value=0.000147336 -0.0325319 -0.0564844 0.049474 0.00692599 -0.0275175 -0.0525943 0.0375373 -0.0740539 -0.0338543 0.0160544 -0.0295653 -0.0528129 0.0617403
internal_weight=1506.49 906.153 722.566 600.333 252.901 172.218 139.756 113.764 608.801 109.016 53.9896 44.3721 38.0643 183.588
internal_count=6345 3801 3025 2544 1067 724 586 478 2547 458 228 183 157 776
is_linear=0
shrinkage=0.05


Tree=6
num_leaves=15
num_cat=0
split_feature=2 0 3 3 2 0 1 2 1 3 2 3 1 2
split_gain=894.906 752.58 439.636 292.191 236.283 171.886 207.037 120.969 78.9032 98.0822 126.744 52.5222 63.5702 45.834
threshold=1.5000000000000002 1.0000000180025095e-35 1.5000000000000002 1.0000000180025095e-35 2.5000000000000004 1.0000000180025095e-35 1.0000000180025095e-35 1.0000000180025095e-35 1.0000000180025095e-35 1.0000000180025095e-35 1.0000000180025095e-35 2.5000000000000004 1.0000000180025095e-35 1.0000000180025095e-35
decision_type=2 2 2 2 2 2 2 2 2 2 2 2 2 2
left_child=1 2 8 4 5 6 -2 11 -1 -10 -11 12 -4 -3
right_child=3 13 7 -5 -6 -7 -8 -9 9 10 -12 -13 -14 -15
leaf_value=-0.080213537776374744 -0.080213537776374744 0.025400868266149762 -0.083873137984655038 0.078092123118507925 0.078092123118507925 0.078092123118507925 0.078092123118507925 0.078092123118507925 -0.080213537776374744 -0.080213537776374744 0.078092123118507925 0.10457206097168714 0.078092123118507925 0.078092123118507925
leaf_weight=490.47253789007664 111.75918048620224 63.694532006978989 29.853918313980103 340.18927447497845 79.00130070745945 31.784779876470566 25.33569410443306 67.945725098252296 54.001284688711166 20.896149292588234 32.015104368329048 6.3436884582042685 7.600708231329917 117.23516635596752
leaf_count=2089 476 267 124 1477 343 138 110 295 230 89 139 26 33 509
internal_value=0.000144369 -0.031479 -0.0547026 0.0480071 0.00671871 -0.0266695 -0.050958 0.0363242 -0.0717296 -0.0328087 0.0155727 -0.0284717 -0.0510054 0.0595427
internal_weight=1478.13 890.059 709.129 588.07 247.881 168.88 137.095 111.744 597.385 106.913 52.9113 43.7983 37.4546 180.93
internal_count=6345 3801 3025 2544 1067 724 586 478 2547 458 228 183 157 776
is_linear=0
shrinkage=0.05


Tree=7
num_leaves=15
num_cat=0
split_feature=2 0 3 3 2 0 1 2 1 3 2 3 1 2
split_gain=826.454 693.632 405.865 270.416 218.466 158.808 191.154 111.944 72.7283 90.5068 117.12 47.8734 58.5181 43.8278
threshold=1.5000000000000002 1.0000000180025095e-35 1.5000000000000002 1.0000000180025095e-35 2.5000000000000004 1.0000000180025095e-35 1.0000000180025095e-35 1.0000000180025095e-35 1.0000000180025095e-35 1.0000000180025095e-35 1.0000000180025095e-35 2.5000000000000004 1.0000000180025095e-35 1.0000000180025095e-35
decision_type=2 2 2 2 2 2 2 2 2 2 2 2 2 2
left_child=1 2 8 4 5 6 -2 11 -1 -10 -11 12 -4 -3
right_child=3 13 7 -5 -6 -7 -8 -9 9 10 -12 -13 -14 -15
leaf_value=-0.077884658896781811 -0.077884658896781811 0.024198082049341714 -0.081147974272751083 0.075981816863405632 0.075981816863405632 0.075981816863405632 0.075981816863405632 0.075981816863405632 -0.077884658896781811 -0.077884658896781811 0.075981816863405632 0.099330771411712704 0.075981816863405632 0.075981816863405632
leaf_weight=480.14225646853447 109.40532028675079 63.5219466984272 29.326897382736206 332.35384501516819 77.181698605418205 31.052695065736771 24.752148240804672 66.380761191248894 52.863915264606476 20.456036776304245 31.277714595198631 6.3443392366170874 7.4256444722414008 114.53494049608707
leaf_count=2089 476 267 124 1477 343 138 110 295 230 89 139 26 33 509
internal_value=0.000141485 -0.0305313 -0.0531121 0.0466927 0.00653307 -0.0259115 -0.0494962 0.0352429 -0.0696543 -0.0318742 0.0151415 -0.0275058 -0.0494008 0.0575079
internal_weight=1447.02 872.274 694.218 574.746 242.392 165.21 134.157 109.478 584.74 104.598 51.7338 43.0969 36.7525 178.057
internal_count=6345 3801 3025 2544 1067 724 586 478 2547 458 228 183 157 776
is_linear=0
shrinkage=0.05


Tree=8
num_leaves=15
num_cat=0
split_feature=2 0 3 3 2 0 1 2 1 3 2 3 1 2
split_gain=764.876 640.638 375.55 250.775 202.426 147.051 176.895 103.805 67.2018 83.7128 108.465 43.8062 54.0088 42.0913
threshold=1.5000000000000002 1.0000000180025095e-35 1.5000000000000002 1.0000000180025095e-35 2.5000000000000004 1.0000000180025095e-35 1.0000000180025095e-35 1.0000000180025095e-35 1.0000000180025095e-35 1.0000000180025095e-35 1.0000000180025095e-35 2.5000000000000004 1.0000000180025095e-35 1.0000000180025095e-35
decision_type=2 2 2 2 2 2 2 2 2 2 2 2 2 2
left_child=1 2 8 4 5 6 -2 11 -1 -10 -11 12 -4 -3
right_child=3 13 7 -5 -6 -7 -8 -9 9 10 -12 -13 -14 -15
leaf_value=-0.075795291138652396 -0.075795291138652396 0.023055480790013416 -0.078720211378642491 0.074080808104133755 0.074080808104133755 0.074080808104133755 0.074080808104133755 0.074080808104133755 -0.075795291138652396 -0.075795291138652396 0.074080808104133755 0.094812520919046933 0.074080808104133755 0.074080808104133755
leaf_weight=468.9909290522337 106.86437636613846 63.341185033321381 28.734710216522217 324.04861111938953 75.252994999289513 30.276715189218521 24.133613556623459 64.721963629126549 51.636148244142532 19.980944320559502 30.496111676096916 6.3149841874837866 7.2400840669870368 111.6728118211031
leaf_count=2089 476 267 124 1477 343 138 110 295 230 89 139 26 33 509
internal_value=0.000138701 -0.0296736 -0.0516853 0.0455095 0.00636605 -0.0252306 -0.0481838 0.0342742 -0.0677921 -0.0310348 0.0147535 -0.0266474 -0.0479683 0.0556137
internal_weight=1413.71 853.13 678.116 560.576 236.528 161.275 130.998 107.012 571.104 102.113 50.4771 42.2898 35.9748 175.014
internal_count=6345 3801 3025 2544 1067 724 586 478 2547 458 228 183 157 776
is_linear=0
shrinkage=0.05


Tree=9
num_leaves=15
num_cat=0
split_feature=2 0 3 3 2 0 1 2 1 3 2 2 3 3
split_gain=709.249 592.803 348.218 232.99 187.925 136.436 164.036 96.4364 62.2323 77.5918 100.649 40.573 111.281 40.2201
threshold=1.5000000000000002 1.0000000180025095e-35 1.5000000000000002 1.0000000180025095e-35 2.5000000000000004 1.0000000180025095e-35 1.0000000180025095e-35 1.0000000180025095e-35 1.0000000180025095e-35 1.0000000180025095e-35 1.0000000180025095e-35 1.0000000180025095e-35 1.0000000180025095e-35 2.5000000000000004
decision_type=2 2 2 2 2 2 2 2 2 2 2 2 2 2
left_child=1 2 8 4 5 6 -2 13 -1 -10 -11 12 -3 -4
right_child=3 11 7 -5 -6 -7 -8 -9 9 10 -12 -13 -14 -15
leaf_value=-0.073912389846954279 -0.073912389846954279 -0.05726338785619766 -0.046683144503384753 0.072361360594349319 0.072361360594349319 0.072361360594349319 0.072361360594349319 0.072361360594349319 -0.073912389846954279 -0.073912389846954279 0.072361360594349319 0.072361360594349319 0.077566800649021411 0.090880587190711848
leaf_weight=457.19022946059704 104.17546635866165 26.041841134428978 35.136052787303925 315.38082271814346 73.240096271038055 29.466860890388489 23.488077521324158 62.990753352642059 50.336885005235672 19.478185936808586 29.680388867855072 108.68574053049088 37.112448066473007 6.2601093202829352
leaf_count=2089 476 105 157 1477 343 138 110 295 230 89 139 509 162 26
internal_value=0.000136016 -0.0288934 -0.0503995 0.04444 0.00621515 -0.0246163 -0.0470003 0.0334022 -0.0661136 -0.0302776 0.0144031 0.0538413 0.0219692 -0.0258802
internal_weight=1378.66 832.913 661.073 545.751 230.371 157.13 127.664 104.387 556.686 99.4955 49.1586 171.84 63.1543 41.3962
internal_count=6345 3801 3025 2544 1067 724 586 478 2547 458 228 776 267 183
is_linear=0
shrinkage=0.05


Tree=10
num_leaves=15
num_cat=0
split_feature=2 0 3 3 2 1 0 2 1 3 2 2 3 1
split_gain=685.956 527.854 323.445 203.572 173.008 128.45 158.591 94.9606 62.9298 81.5768 95.6907 48.0134 122.719 39.4289
threshold=1.5000000000000002 1.0000000180025095e-35 1.5000000000000002 1.0000000180025095e-35 2.5000000000000004 1.0000000180025095e-35 1.0000000180025095e-35 1.0000000180025095e-35 1.0000000180025095e-35 1.0000000180025095e-35 1.0000000180025095e-35 1.0000000180025095e-35 1.0000000180025095e-35 1.0000000180025095e-35
decision_type=2 2 2 2 2 2 2 2 2 2 2 2 2 2
left_child=1 2 8 4 5 6 -2 13 -1 -10 -11 12 -3 -4
right_child=3 11 7 -5 -6 -7 -8 -9 9 10 -12 -13 -14 -15
leaf_value=-0.072208705367528894 -0.072208705367528894 -0.065309078557102967 -0.052264625429847091 0.070800422391944132 0.070800422391944132 0.070800422391944132 0.070800422391944132 0.070800422391944132 -0.072208705367528894 -0.072208705367528894 0.070800422391944132 0.070800422391944132 0.075509356614476872 0.073178438015425659
leaf_weight=447.87146745622158 99.668971359729767 26.874582767486572 32.133339881896973 306.85881851613522 74.899278894066811 30.084197893738747 24.067358314990997 62.865599736571312 52.603068217635155 18.741174101829529 31.1215840280056 105.81338569521904 36.463265463709831 7.7809808850288382
leaf_count=2103 468 109 142 1479 361 145 116 303 247 88 150 510 163 36
internal_value=0.000153049 -0.0285282 -0.0489156 0.044187 0.0084815 -0.0218632 -0.0443927 0.0325051 -0.0641215 -0.028773 0.0170497 0.0501906 0.0157594 -0.0278105
internal_weight=1357.85 822.268 653.117 535.579 228.72 153.821 123.736 102.78 550.337 102.466 49.8628 169.151 63.3378 39.9143
internal_count=6420 3851 3069 2569 1090 729 584 481 2588 485 238 782 272 178
is_linear=0
shrinkage=0.05


Tree=11
num_leaves=15
num_cat=0
split_feature=2 0 3 3 2 1 0 2 1 3 2 2 3 1
split_gain=638.33 490.594 301.176 189.745 161.157 119.592 147.585 88.4975 58.4971 75.8882 89.1009 45.3454 113.072 36.3265
threshold=1.5000000000000002 1.0000000180025095e-35 1.5000000000000002 1.0000000180025095e-35 2.5000000000000004 1.0000000180025095e-35 1.0000000180025095e-35 1.0000000180025095e-35 1.0000000180025095e-35 1.0000000180025095e-35 1.0000000180025095e-35 1.0000000180025095e-35 1.0000000180025095e-35 1.0000000180025095e-35
decision_type=2 2 2 2 2 2 2 2 2 2 2 2 2 2
left_child=1 2 8 4 5 6 -2 13 -1 -10 -11 12 -3 -4
right_child=3 11 7 -5 -6 -7 -8 -9 9 10 -12 -13 -14 -15
leaf_value=-0.070661572449455437 -0.070661572449455437 -0.062600400085273775 -0.050401154041262858 0.069378661967957708 0.069378661967957708 0.069378661967957708 0.069378661967957708 0.069378661967957708 -0.070661572449455437 -0.070661572449455437 0.069378661967957708 0.069378661967957708 0.073654088743270271 0.071544427102230704
leaf_weight=435.11699996888638 96.830601990222931 26.641403928399086 31.667280316352844 297.7214807420969 72.669002398848534 29.188380464911461 23.350704371929169 60.993650212883949 51.105039939284325 18.207463622093201 30.194876343011856 102.66257956624031 35.536126852035522 7.5662000477313986
leaf_count=2103 468 109 142 1479 361 145 116 303 247 88 150 510 163 36
internal_value=0.000151808 -0.0278855 -0.0478411 0.0432894 0.00830741 -0.021404 -0.0434524 0.0316971 -0.0627523 -0.0281673 0.0166999 0.0489699 0.0152727 -0.0268839
internal_weight=1319.45 799.692 634.852 519.76 222.039 149.37 120.181 100.227 534.624 99.5074 48.4023 164.84 62.1775 39.2335
internal_count=6420 3851 3069 2569 1090 729 584 481 2588 485 238 782 272 178
is_linear=0
shrinkage=0.05


Tree=12
num_leaves=15
num_cat=0
split_feature=2 0 3 3 2 1 0 2 1 3 2 2 3 1
split_gain=594.877 456.64 280.894 177.1 150.333 111.509 137.551 82.5955 54.4649 70.7061 83.0871 42.8674 104.379 33.5039
threshold=1.5000000000000002 1.0000000180025095e-35 1.5000000000000002 1.0000000180025095e-35 2.5000000000000004 1.0000000180025095e-35 1.0000000180025095e-35 1.0000000180025095e-35 1.0000000180025095e-35 1.0000000180025095e-35 1.0000000180025095e-35 1.0000000180025095e-35 1.0000000180025095e-35 1.0000000180025095e-35
decision_type=2 2 2 2 2 2 2 2 2 2 2 2 2 2
left_child=1 2 8 4 5 6 -2 13 -1 -10 -11 12 -3 -4
right_child=3 11 7 -5 -6 -7 -8 -9 9 10 -12 -13 -14 -15
leaf_value=-0.069251984792936316 -0.069251984792936316 -0.060102440951410409 -0.048633030378100794 0.068079773501551838 0.068079773501551838 0.068079773501551838 0.068079773501551838 0.068079773501551838 -0.069251984792936316 -0.069251984792936316 0.068079773501551838 0.068079773501551838 0.071974479064904048 0.070058269564387335
leaf_weight=422.10481582581997 93.934880554676056 26.368142426013947 31.189912468194962 288.46625733375549 70.40995192527771 28.281005620956421 22.624804496765137 59.097549676895142 49.576742514967918 17.662968993186951 29.256212711334229 99.471123218536377 34.571573629975319 7.3459514677524558
leaf_count=2103 468 109 142 1479 361 145 116 303 247 88 150 510 163 36
internal_value=0.000150701 -0.0272966 -0.0468575 0.0424697 0.00814851 -0.0209853 -0.0425952 0.0309436 -0.0615046 -0.0276149 0.0163805 0.0478487 0.0148258 -0.0260073
internal_weight=1280.36 776.645 616.234 503.717 215.251 144.841 116.56 97.6334 518.601 96.4959 46.9192 160.411 60.9397 38.5359
internal_count=6420 3851 3069 2569 1090 729 584 481 2588 485 238 782 272 178
is_linear=0
shrinkage=0.05


Tree=13
num_leaves=15
num_cat=0
split_feature=2 0 3 3 2 1 0 2 1 3 2 2 3 3
split_gain=555.117 425.606 262.367 165.508 140.42 104.114 128.378 77.1914 50.7855 65.9711 77.5832 40.5635 96.5159 32.325
threshold=1.5000000000000002 1.0000000180025095e-35 1.5000000000000002 1.0000000180025095e-35 2.5000000000000004 1.0000000180025095e-35 1.0000000180025095e-35 1.0000000180025095e-35 1.0000000180025095e-35 1.0000000180025095e-35 1.0000000180025095e-35 1.0000000180025095e-35 1.0000000180025095e-35 2.5000000000000004
decision_type=2 2 2 2 2 2 2 2 2 2 2 2 2 2
left_child=1 2 8 4 5 6 -2 13 -1 -10 -11 12 -3 -4
right_child=3 11 7 -5 -6 -7 -8 -9 9 10 -12 -13 -14 -15
leaf_value=-0.06796386433215891 -0.06796386433215891 -0.057785530255551644 -0.042903132760731759 0.06688987278143578 0.06688987278143578 0.06688987278143578 0.06688987278143578 0.06688987278143578 -0.06796386433215891 -0.06796386433215891 0.06688987278143578 0.06688987278143578 0.070448454742448402 0.095331558864972854
leaf_weight=408.93368969857693 91.00378829240799 26.061884760856628 32.975982904434204 279.15399746596813 68.136979773640633 27.368038967251778 21.894431173801422 57.189764186739922 48.029777154326439 17.111823439598083 28.311764448881149 96.259999126195908 33.579573959112167 4.8512115180492392
leaf_count=2103 468 109 158 1479 361 145 116 303 247 88 150 510 163 20
internal_value=0.000149724 -0.026755 -0.045954 0.0417191 0.00800307 -0.0206023 -0.0418116 0.0302379 -0.0603643 -0.0271098 0.0160882 0.0468145 0.0144133 -0.025175
internal_weight=1240.86 753.305 597.404 487.557 208.403 140.266 112.898 95.017 502.387 93.4534 45.4236 155.901 59.6415 37.8272
internal_count=6420 3851 3069 2569 1090 729 584 481 2588 485 238 782 272 178
is_linear=0
shrinkage=0.05


Tree=14
num_leaves=15
num_cat=0
split_feature=2 0 3 3 2 1 0 2 1 3 2 2 3 1
split_gain=518.546 396.974 245.557 154.853 131.319 97.3288 119.969 72.2745 47.4184 61.6329 72.533 38.4189 89.3806 31.4093
threshold=1.5000000000000002 1.0000000180025095e-35 1.5000000000000002 1.0000000180025095e-35 2.5000000000000004 1.0000000180025095e-35 1.0000000180025095e-35 1.0000000180025095e-35 1.0000000180025095e-35 1.0000000180025095e-35 1.0000000180025095e-35 1.0000000180025095e-35 1.0000000180025095e-35 1.0000000180025095e-35
decision_type=2 2 2 2 2 2 2 2 2 2 2 2 2 2
left_child=1 2 8 4 5 6 -2 13 -1 -10 -11 12 -3 -4
right_child=3 11 7 -5 -6 -7 -8 -9 9 10 -12 -13 -14 -15
leaf_value=-0.066783528889068397 -0.066783528889068397 -0.05562519722046614 -0.046541514197001421 0.06579706834149561 0.06579706834149561 0.06579706834149561 0.06579706834149561 0.06579706834149561 -0.066783528889068397 -0.066783528889068397 0.06579706834149561 0.06579706834149561 0.069057460933278816 0.069442933041456406
leaf_weight=395.68892128765583 88.056307733058929 25.728846848011017 30.236643552780151 269.83706536889076 65.862867206335068 26.454614251852036 21.163691401481628 55.281021505594254 46.474162414669991 16.557596325874329 27.366842329502106 93.047263920307159 32.568779543042183 7.2335548400878897
leaf_count=2103 468 109 142 1479 361 145 116 303 247 88 150 510 163 36
internal_value=0.000148764 -0.0262424 -0.0450936 0.04103 0.00786959 -0.0202511 -0.0410932 0.0294593 -0.0593192 -0.0266467 0.01582 0.0458567 0.0140305 -0.0241509
internal_weight=1201.56 730.184 578.839 471.375 201.537 135.675 109.22 92.7512 486.088 90.3986 43.9244 151.345 58.2976 37.4702
internal_count=6420 3851 3069 2569 1090 729 584 481 2588 485 238 782 272 178
is_linear=0
shrinkage=0.05


Tree=15
num_leaves=15
num_cat=0
split_feature=2 0 3 3 2 0 1 2 1 3 2 3 1 2
split_gain=450.295 380.477 234.892 164.397 133.346 88.674 107.094 64.3917 42.6637 55.1906 67.6623 35.1999 42.5427 31.603
threshold=1.5000000000000002 1.0000000180025095e-35 1.5000000000000002 1.0000000180025095e-35 2.5000000000000004 1.0000000180025095e-35 1.0000000180025095e-35 1.0000000180025095e-35 1.0000000180025095e-35 1.0000000180025095e-35 1.0000000180025095e-35 2.5000000000000004 1.0000000180025095e-35 1.0000000180025095e-35
decision_type=2 2 2 2 2 2 2 2 2 2 2 2 2 2
left_child=1 2 8 4 5 6 -2 11 -1 -10 -11 12 -4 -3
right_child=3 13 7 -5 -6 -7 -8 -9 9 10 -12 -13 -14 -15
leaf_value=-0.065699277615943338 -0.065699277615943338 0.017420587653788507 -0.069914624496792352 0.064791125480343395 0.064791125480343395 0.064791125480343395 0.064791125480343395 0.064791125480343395 -0.065699277615943338 -0.065699277615943338 0.064791125480343395 0.091080311953435855 0.068406367960749517 0.064791125480343395
leaf_weight=379.71605694293976 90.56446185708046 57.970090508460999 25.870795890688896 258.79862082004547 61.484491944313049 23.07870614528656 19.026719570159912 53.028172135353088 44.19109283387661 16.185215070843697 25.721306085586548 6.0430457442998877 7.0802330374717704 89.672224640846252
leaf_count=2088 498 276 127 1469 349 131 108 301 243 89 146 26 36 509
internal_value=-0.000203824 -0.0251824 -0.044073 0.0387006 0.0039231 -0.0242856 -0.0430441 0.028925 -0.0584939 -0.0267158 0.0143929 -0.0198495 -0.0401934 0.0461916
internal_weight=1158.43 705.478 557.836 452.953 194.154 132.67 109.591 92.0222 465.814 86.0976 41.9065 38.9941 32.951 147.642
internal_count=6396 3841 3056 2555 1086 737 606 490 2566 478 235 189 163 785
is_linear=0
shrinkage=0.05


Tree=16
num_leaves=15
num_cat=0
split_feature=2 0 3 3 2 0 1 2 1 3 2 3 1 2
split_gain=421.384 355.13 220.051 154.123 124.96 83.072 100.3 60.4058 39.9292 51.6781 63.3945 32.4841 39.683 30.9849
threshold=1.5000000000000002 1.0000000180025095e-35 1.5000000000000002 1.0000000180025095e-35 2.5000000000000004 1.0000000180025095e-35 1.0000000180025095e-35 1.0000000180025095e-35 1.0000000180025095e-35 1.0000000180025095e-35 1.0000000180025095e-35 2.5000000000000004 1.0000000180025095e-35 1.0000000180025095e-35
decision_type=2 2 2 2 2 2 2 2 2 2 2 2 2 2
left_child=1 2 8 4 5 6 -2 11 -1 -10 -11 12 -4 -3
right_child=3 13 7 -5 -6 -7 -8 -9 9 10 -12 -13 -14 -15
leaf_value=-0.064700999158824643 -0.064700999158824643 0.016589294780236821 -0.068569855154440099 0.063863178666931336 0.063863178666931336 0.063863178666931336 0.063863178666931336 0.063863178666931336 -0.064700999158824643 -0.064700999158824643 0.063863178666931336 0.087671386201108037 0.067189359507423094 0.063863178666931336
leaf_weight=366.62776851654053 87.442829847335815 57.834765791893005 25.079323261976246 249.6626258045435 59.313993468880653 22.263991817831993 18.355046689510345 51.156194940209389 42.667886853218079 15.627333045005797 24.813303858041763 5.9660263061523429 6.8537955880165091 86.506655231118202
leaf_count=2088 498 276 127 1469 349 131 108 301 243 89 146 26 36 509
internal_value=-0.000200632 -0.0247293 -0.0433886 0.03814 0.00386604 -0.0239226 -0.0423962 0.028419 -0.0576077 -0.0263162 0.0141826 -0.0194235 -0.0394319 0.0449215
internal_weight=1120.17 683.133 538.792 437.038 187.376 128.062 105.798 89.0553 449.736 83.1085 40.4406 37.8991 31.9331 144.341
internal_count=6396 3841 3056 2555 1086 737 606 490 2566 478 235 189 163 785
is_linear=0
shrinkage=0.05


Tree=17
num_leaves=15
num_cat=0
split_feature=2 0 3 3 2 0 1 2 1 3 2 3 2 1
split_gain=394.686 331.77 206.347 144.623 117.212 77.899 94.0308 56.7154 37.4089 48.4377 59.4526 30.8471 67.6022 73.2414
threshold=1.5000000000000002 1.0000000180025095e-35 1.5000000000000002 1.0000000180025095e-35 2.5000000000000004 1.0000000180025095e-35 1.0000000180025095e-35 1.0000000180025095e-35 1.0000000180025095e-35 1.0000000180025095e-35 1.0000000180025095e-35 1.0000000180025095e-35 1.0000000180025095e-35 1.0000000180025095e-35
decision_type=2 2 2 2 2 2 2 2 2 2 2 2 2 2
left_child=1 2 8 4 5 6 -2 -4 -1 -10 -11 12 13 -3
right_child=3 11 7 -5 -6 -7 -8 -9 9 10 -12 -13 -14 -15
leaf_value=-0.063779945070461946 -0.063779945070461946 -0.080228164943960456 -0.019034867271710793 0.063005506817412113 0.063005506817412113 0.063005506817412113 0.063005506817412113 0.063005506817412113 -0.063779945070461946 -0.063779945070461946 0.063005506817412113 0.064634016817153736 0.063005506817412113 0.1327043252077055
leaf_weight=353.65494275093079 84.348736345767975 22.307539805769924 36.78050123155117 240.63684596121311 57.169679537415504 21.45910607278347 17.691476762294769 49.306800976395607 41.158118337392807 15.074372559785841 23.916255623102188 78.29533177614212 35.546763494610786 4.9311403781175605
leaf_count=2088 498 95 189 1469 349 131 108 301 243 89 146 452 217 21
internal_value=-0.000197717 -0.0243042 -0.0427575 0.0376221 0.00381332 -0.0235876 -0.0417982 0.027954 -0.0567901 -0.0259474 0.0139883 0.0436975 0.017589 -0.04168
internal_weight=1082.28 660.972 519.891 421.306 180.669 123.499 102.04 86.0873 433.804 80.1487 38.9906 141.081 62.7854 27.2387
internal_count=6396 3841 3056 2555 1086 737 606 490 2566 478 235 785 333 116
is_linear=0
shrinkage=0.05


Tree=18
num_leaves=15
num_cat=0
split_feature=2 0 3 3 2 0 1 2 1 3 2 3 1 3
split_gain=370.018 310.337 194.117 135.822 110.04 73.1132 88.2333 53.4309 35.0813 45.4425 55.8051 30.0619 37.2624 29.2924
threshold=1.5000000000000002 1.0000000180025095e-35 1.5000000000000002 1.0000000180025095e-35 2.5000000000000004 1.0000000180025095e-35 1.0000000180025095e-35 1.0000000180025095e-35 1.0000000180025095e-35 1.0000000180025095e-35 1.0000000180025095e-35 2.5000000000000004 1.0000000180025095e-35 1.0000000180025095e-35
decision_type=2 2 2 2 2 2 2 2 2 2 2 2 2 2
left_child=1 2 8 4 5 6 -2 11 -1 -10 -11 12 -4 -3
right_child=3 13 7 -5 -6 -7 -8 -9 9 10 -12 -13 -14 -15
leaf_value=-0.062928502756606899 -0.062928502756606899 0.017168333757772426 -0.067012272240283874 0.062211372484012296 0.062211372484012296 0.062211372484012296 0.062211372484012296 0.062211372484012296 -0.062928502756606899 -0.062928502756606899 0.062211372484012296 0.085283360790661858 0.066381224947891615 0.063723942414374207
leaf_weight=340.84266328811646 81.292934060096741 61.145599350333214 24.056218847632412 231.74835897982121 55.057983174920082 20.666463598608971 17.038000524044037 47.485538497567177 39.667034089565277 14.528255283832548 23.032852560281754 5.8944095820188513 6.691575050354003 75.513338387012482
leaf_count=2088 498 333 127 1469 349 131 108 301 243 89 146 26 36 452
internal_value=-0.000194204 -0.0239106 -0.0420895 0.0371426 0.00376453 -0.0232778 -0.0412453 0.0272083 -0.0560341 -0.0256062 0.0138085 -0.0181532 -0.0379821 0.0428935
internal_weight=1044.66 638.857 502.199 405.804 174.055 118.997 98.3309 84.1277 418.071 77.2281 37.5611 36.6422 30.7478 136.659
internal_count=6396 3841 3056 2555 1086 737 606 490 2566 478 235 189 163 785
is_linear=0
shrinkage=0.05


Tree=19
num_leaves=15
num_cat=0
split_feature=2 0 3 3 2 0 1 2 1 3 2 2 3 1
split_gain=347.093 290.271 182.359 127.656 103.39 68.6779 82.863 50.2523 32.9276 42.669 52.4242 30.0527 62.293 65.8189
threshold=1.5000000000000002 1.0000000180025095e-35 1.5000000000000002 1.0000000180025095e-35 2.5000000000000004 1.0000000180025095e-35 1.0000000180025095e-35 1.0000000180025095e-35 1.0000000180025095e-35 1.0000000180025095e-35 1.0000000180025095e-35 1.0000000180025095e-35 1.0000000180025095e-35 1.0000000180025095e-35
decision_type=2 2 2 2 2 2 2 2 2 2 2 2 2 2
left_child=1 2 8 4 5 6 -2 -4 -1 -10 -11 12 13 -3
right_child=3 11 7 -5 -6 -7 -8 -9 9 10 -12 -13 -14 -15
leaf_value=-0.062140001857932614 -0.062140001857932614 -0.07838083386819672 -0.017815791991534907 0.061474828567996069 0.061474828567996069 0.061474828567996069 0.061474828567996069 0.061474828567996069 -0.062140001857932614 -0.062140001857932614 0.061474828567996069 0.061683713945750257 0.06512023026410646 0.12119334261508924
leaf_weight=328.22882652282715 78.284461498260498 21.943153217434887 35.511109888553619 223.01982080936432 52.984286904335022 19.888084769248962 16.396283626556396 45.697049736976624 38.199044466018677 13.990596532821653 22.165346384048462 78.120489403605461 28.524401187896729 5.0894535183906546
leaf_count=2088 498 95 189 1469 349 131 108 301 243 89 146 509 160 21
internal_value=-0.000192042 -0.0235265 -0.0415469 0.0366981 0.00371929 -0.0229907 -0.0407331 0.0268022 -0.0553341 -0.0252902 0.0136419 0.0416911 0.0135789 -0.0408068
internal_weight=1008.04 617.469 483.792 390.573 167.553 114.569 94.6807 81.2082 402.584 74.355 36.1559 133.677 55.557 27.0326
internal_count=6396 3841 3056 2555 1086 737 606 490 2566 478 235 785 276 116
is_linear=0
shrinkage=0.05


Tree=20
num_leaves=15
num_cat=0
split_feature=2 0 3 3 2 1 0 2 1 3 2 3 1 2
split_gain=337.397 284.521 164.184 111.062 95.5419 64.9641 76.7029 48.6532 33.3642 45.9323 46.5014 29.0379 33.6631 25.1017
threshold=1.5000000000000002 1.0000000180025095e-35 1.5000000000000002 1.0000000180025095e-35 2.5000000000000004 1.0000000180025095e-35 1.0000000180025095e-35 1.0000000180025095e-35 1.0000000180025095e-35 1.0000000180025095e-35 1.0000000180025095e-35 2.5000000000000004 1.0000000180025095e-35 1.0000000180025095e-35
decision_type=2 2 2 2 2 2 2 2 2 2 2 2 2 2
left_child=1 2 8 4 5 6 -2 11 -1 -10 -11 12 -4 -3
right_child=3 13 7 -5 -6 -7 -8 -9 9 10 -12 -13 -14 -15
leaf_value=-0.0614085802645601 -0.0614085802645601 0.016030000697771676 -0.065628671325225194 0.060790660750722827 0.060790660750722827 0.060790660750722827 0.060790660750722827 0.060790660750722827 -0.0614085802645601 -0.0614085802645601 0.060790660750722827 0.082538781377903353 0.065604671746875343 0.060987138821803212
leaf_weight=318.11404564976692 72.154255717992783 52.269151017069817 23.58566522598267 215.49181795120239 52.996971487998962 19.709617495536804 15.621696829795836 42.777169823646545 38.421763002872467 11.950075894594191 22.337566494941711 5.9526227563619605 6.1635945439338675 76.478798523545265
leaf_count=2103 477 268 130 1476 363 135 107 293 254 79 153 27 34 518
internal_value=0.000224421 -0.0231083 -0.0411718 0.0373391 0.00584889 -0.0212408 -0.0396605 0.024825 -0.0544243 -0.0238669 0.0182013 -0.0182683 -0.0384391 0.0427354
internal_weight=974.025 598.05 469.303 375.974 160.483 107.486 87.776 78.4791 390.823 72.7094 34.2876 35.7019 29.7493 128.748
internal_count=6417 3859 3073 2558 1082 719 584 484 2589 486 232 191 164 786
is_linear=0
shrinkage=0.05


Tree=21
num_leaves=15
num_cat=0
split_feature=2 0 3 3 2 1 0 2 1 3 2 3 1 2
split_gain=316.996 266.545 154.491 104.532 89.8989 61.1137 72.1428 45.8141 31.3656 43.196 43.749 26.9696 31.525 24.7776
threshold=1.5000000000000002 1.0000000180025095e-35 1.5000000000000002 1.0000000180025095e-35 2.5000000000000004 1.0000000180025095e-35 1.0000000180025095e-35 1.0000000180025095e-35 1.0000000180025095e-35 1.0000000180025095e-35 1.0000000180025095e-35 2.5000000000000004 1.0000000180025095e-35 1.0000000180025095e-35
decision_type=2 2 2 2 2 2 2 2 2 2 2 2 2 2
left_child=1 2 8 4 5 6 -2 11 -1 -10 -11 12 -4 -3
right_child=3 13 7 -5 -6 -7 -8 -9 9 10 -12 -13 -14 -15
leaf_value=-0.06072907881134873 -0.06072907881134873 0.015271079920499029 -0.064635910513168846 0.060154231734817092 0.060154231734817092 0.060154231734817092 0.060154231734817092 0.060154231734817092 -0.06072907881134873 -0.06072907881134873 0.060154231734817092 0.080078358204207209 0.064613789077170164 0.060337193783022318
leaf_weight=305.89910973608494 69.383678242564201 52.127134189009666 22.771172672510151 207.09571892023087 50.932077214121819 18.941681608557701 15.013036534190176 41.110464528203011 36.946445018053055 11.491217151284216 21.467239156365395 5.8317932188510886 5.9506088793277732 73.512595430016518
leaf_count=2103 477 268 130 1476 363 135 107 293 254 79 153 27 34 518
internal_value=0.000220979 -0.0227739 -0.0406996 0.0369442 0.00578655 -0.0210095 -0.0392256 0.0244849 -0.0538238 -0.0236068 0.0180073 -0.0179531 -0.0378578 0.0416395
internal_weight=938.474 577.108 451.468 361.366 154.27 103.338 84.3967 75.664 375.804 69.9049 32.9585 34.5536 28.7218 125.64
internal_count=6417 3859 3073 2558 1082 719 584 484 2589 486 232 191 164 786
is_linear=0
shrinkage=0.05


Tree=22
num_leaves=15
num_cat=0
split_feature=2 0 3 3 2 1 0 2 1 3 2 3 2 1
split_gain=298.008 249.859 145.464 98.4467 84.6435 57.5294 67.8994 43.1662 29.5076 40.6503 41.1864 25.1241 54.4729 56.1176
threshold=1.5000000000000002 1.0000000180025095e-35 1.5000000000000002 1.0000000180025095e-35 2.5000000000000004 1.0000000180025095e-35 1.0000000180025095e-35 1.0000000180025095e-35 1.0000000180025095e-35 1.0000000180025095e-35 1.0000000180025095e-35 1.0000000180025095e-35 1.0000000180025095e-35 1.0000000180025095e-35
decision_type=2 2 2 2 2 2 2 2 2 2 2 2 2 2
left_child=1 2 8 4 5 6 -2 -4 -1 -10 -11 12 13 -3
right_child=3 11 7 -5 -6 -7 -8 -9 9 10 -12 -13 -14 -15
leaf_value=-0.060096898216630203 -0.060096898216630203 -0.077075644387146106 -0.017663064469132572 0.059561421152306393 0.059561421152306393 0.059561421152306393 0.059561421152306393 0.059561421152306393 -0.060096898216630203 -0.060096898216630182 0.059561421152306393 0.061237005237279096 0.059996058263438068 0.11112402104076365
leaf_weight=293.96332508325577 66.676417529582977 19.82593604922295 33.404844999313354 198.90638655424118 48.918034091591835 18.192657306790352 14.419365420937536 39.484804376959801 35.504842877388 11.042844831943514 20.618344947695732 66.867302194237709 30.964089095592499 4.9498954415321341
leaf_count=2103 477 87 191 1476 363 135 107 293 254 79 153 456 223 20
internal_value=0.000217674 -0.0224557 -0.0402606 0.0365764 0.0057285 -0.0207942 -0.0388209 0.0241699 -0.0532651 -0.0233647 0.0178268 0.0405721 0.0157818 -0.0394757
internal_weight=903.739 556.626 434.019 347.113 148.206 99.2884 81.0958 72.8896 361.129 67.166 31.6612 122.607 55.7399 24.7758
internal_count=6417 3859 3073 2558 1082 719 584 484 2589 486 232 786 330 107
is_linear=0
shrinkage=0.05


Tree=23
num_leaves=15
num_cat=0
split_feature=2 0 3 3 2 1 0 2 1 3 2 3 1 3
split_gain=280.349 234.493 137.49 92.7698 79.743 54.1884 63.9455 40.7825 27.7778 38.2789 38.7974 25.0925 29.726 23.9021
threshold=1.5000000000000002 1.0000000180025095e-35 1.5000000000000002 1.0000000180025095e-35 2.5000000000000004 1.0000000180025095e-35 1.0000000180025095e-35 1.0000000180025095e-35 1.0000000180025095e-35 1.0000000180025095e-35 1.0000000180025095e-35 2.5000000000000004 1.0000000180025095e-35 1.0000000180025095e-35
decision_type=2 2 2 2 2 2 2 2 2 2 2 2 2 2
left_child=1 2 8 4 5 6 -2 11 -1 -10 -11 12 -4 -3
right_child=3 13 7 -5 -6 -7 -8 -9 9 10 -12 -13 -14 -15
leaf_value=-0.059507981313832448 -0.059507981313832448 0.015469326868754896 -0.063479624061845139 0.059008562040698036 0.059008562040698036 0.059008562040698036 0.059008562040698036 0.059008562040698036 -0.059507981313832448 -0.059507981313832427 0.059008562040698036 0.078337139008705717 0.063943520421717914 0.06057588328244367
leaf_weight=282.32355107367039 64.036297604441643 54.075728923082352 21.743149906396869 190.93327832221985 46.95716804265976 17.463409602642059 13.841369092464445 37.902066767215729 34.098992854356766 10.605592265725138 19.791864216327667 5.7310737222433081 5.7973337173461905 64.282681748270988
leaf_count=2103 477 330 130 1476 363 135 107 293 254 79 153 27 34 456
internal_value=0.000215862 -0.0221616 -0.039754 0.0362335 0.00567438 -0.0205937 -0.0384438 0.0235474 -0.0527446 -0.0231391 0.0176585 -0.0168489 -0.0366568 0.0399675
internal_weight=869.584 536.352 417.994 333.232 142.298 95.3411 77.8777 71.1736 346.82 64.4964 30.3975 33.2716 27.5405 118.358
internal_count=6417 3859 3073 2558 1082 719 584 484 2589 486 232 191 164 786
is_linear=0
shrinkage=0.05


Tree=24
num_leaves=15
num_cat=0
split_feature=2 0 3 3 2 1 0 2 1 3 2 2 3 1
split_gain=263.817 219.978 129.62 87.4675 75.1682 51.0706 60.257 38.4709 26.1654 36.0671 36.5676 24.2475 50.7386 51.0997
threshold=1.5000000000000002 1.0000000180025095e-35 1.5000000000000002 1.0000000180025095e-35 2.5000000000000004 1.0000000180025095e-35 1.0000000180025095e-35 1.0000000180025095e-35 1.0000000180025095e-35 1.0000000180025095e-35 1.0000000180025095e-35 1.0000000180025095e-35 1.0000000180025095e-35 1.0000000180025095e-35
decision_type=2 2 2 2 2 2 2 2 2 2 2 2 2 2
left_child=1 2 8 4 5 6 -2 -4 -1 -10 -11 12 13 -3
right_child=3 11 7 -5 -6 -7 -8 -9 9 10 -12 -13 -14 -15
leaf_value=-0.058958684656737738 -0.058958684656737738 -0.075457952343774407 -0.016594781965433947 0.05849235728696639 0.05849235728696639 0.05849235728696639 0.05849235728696639 0.05849235728696639 -0.058958684656737738 -0.058958684656737717 0.05849235728696639 0.05880691287861526 0.062155717253629922 0.10385587041731303
leaf_weight=270.99291796982288 61.466296657919884 19.449242100119594 32.131837263703346 183.18348732590675 45.051223509013653 16.754587255418301 13.279561750590799 36.363659746944904 32.730480819940567 10.179952695965769 18.988532222807407 65.852642893791199 25.328777939081192 4.9931079149246207
leaf_count=2103 477 87 191 1476 363 135 107 293 254 79 153 518 161 20
internal_value=0.000212485 -0.021866 -0.0393706 0.0359134 0.00562387 -0.0204065 -0.038092 0.0232683 -0.0522591 -0.0229286 0.0175013 0.038901 0.0125633 -0.0388275
internal_weight=836.746 517.011 401.387 319.735 136.552 91.5004 74.7459 68.4955 332.892 61.899 29.1685 115.624 49.7711 24.4424
internal_count=6417 3859 3073 2558 1082 719 584 484 2589 486 232 786 268 107
is_linear=0
shrinkage=0.05


Tree=25
num_leaves=15
num_cat=0
split_feature=2 0 3 3 2 0 1 2 2 3 1 3 2 3
split_gain=251.394 179.123 135.649 85.2882 70.8798 50.8869 52.8952 32.6365 32.2237 56.7941 24.346 30.693 35.7934 22.3958
threshold=1.5000000000000002 1.0000000180025095e-35 1.5000000000000002 1.0000000180025095e-35 2.5000000000000004 1.0000000180025095e-35 1.0000000180025095e-35 1.0000000180025095e-35 1.0000000180025095e-35 1.0000000180025095e-35 1.0000000180025095e-35 1.0000000180025095e-35 1.0000000180025095e-35 2.5000000000000004
decision_type=2 2 2 2 2 2 2 2 2 2 2 2 2 2
left_child=1 2 10 4 5 6 -2 13 9 -3 -1 -12 -13 -4
right_child=3 8 7 -5 -6 -7 -8 -9 -10 -11 11 12 -14 -15
leaf_value=-0.058445763431403966 -0.058445763431403966 -0.045974062863730049 -0.032347116298043821 0.058009866310244122 0.058009866310244122 0.058009866310244122 0.058009866310244122 0.058009866310244122 0.058291078033350346 0.061423167334908615 -0.058445763431403966 -0.058445763431403945 0.058009866310244122 0.07721196426039055
leaf_weight=260.59938561916351 59.463142544031143 26.470753163099289 24.961557283997539 176.61413699388504 42.011314257979393 16.542698815464973 11.663197726011274 36.655764281749725 60.904133439064026 23.011015176773071 29.175263285636902 10.508039742708208 17.7328210324049 5.7365277707576743
leaf_count=2108 481 119 155 1484 353 139 98 308 500 152 236 85 149 27
internal_value=-0.000211693 -0.0222147 -0.0383001 0.0354015 0.00461074 -0.0209783 -0.0393495 0.0261587 0.033941 0.00396997 -0.0519521 -0.0224787 0.0146783 -0.0118739
internal_weight=802.05 495.755 385.369 306.294 129.68 87.669 71.1263 67.3538 110.386 49.4818 318.016 57.4161 28.2409 30.6981
internal_count=6394 3839 3068 2555 1071 718 579 490 771 271 2578 470 234 182
is_linear=0
shrinkage=0.05


Tree=26
num_leaves=15
num_cat=0
split_feature=2 0 3 3 2 0 1 2 2 3 1 3 2 3
split_gain=236.842 168.462 128.238 80.492 66.8804 48.0082 49.8961 30.9696 30.7304 52.8669 22.958 28.9501 33.7705 20.6237
threshold=1.5000000000000002 1.0000000180025095e-35 1.5000000000000002 1.0000000180025095e-35 2.5000000000000004 1.0000000180025095e-35 1.0000000180025095e-35 1.0000000180025095e-35 1.0000000180025095e-35 1.0000000180025095e-35 1.0000000180025095e-35 1.0000000180025095e-35 1.0000000180025095e-35 2.5000000000000004
decision_type=2 2 2 2 2 2 2 2 2 2 2 2 2 2
left_child=1 2 10 4 5 6 -2 13 9 -3 -1 -12 -13 -4
right_child=3 8 7 -5 -6 -7 -8 -9 -10 -11 11 12 -14 -15
leaf_value=-0.057966293167995592 -0.057966293167995592 -0.044315302719754 -0.031057718770815798 0.057558434131309059 0.057558434131309059 0.057558434131309059 0.057558434131309059 0.057558434131309059 0.057821837201246118 0.060742634801319945 -0.057966293167995592 -0.057966293167995564 0.057558434131309059 0.075253729618567938
leaf_weight=249.88818648457527 57.019078604876995 26.098084107041359 24.704667121171955 169.28476446866989 40.267871871590614 15.856187507510183 11.179182559251784 35.134573757648468 58.392019771039486 22.127746820449829 27.976096779108047 10.076136551797392 16.996920421719551 5.5950947776436797
leaf_count=2108 481 119 155 1484 353 139 98 308 500 152 236 85 149 27
internal_value=-0.000207778 -0.0219555 -0.0378983 0.0351233 0.00457428 -0.0208088 -0.0390293 0.0256146 0.0334267 0.00388906 -0.0515271 -0.022297 0.0145621 -0.0114265
internal_weight=770.597 476.99 370.372 293.607 124.322 84.0544 68.1983 65.4343 106.618 48.2258 304.937 55.0492 27.0731 30.2998
internal_count=6394 3839 3068 2555 1071 718 579 490 771 271 2578 470 234 182
is_linear=0
shrinkage=0.05


Tree=27
num_leaves=15
num_cat=0
split_feature=2 0 3 3 2 0 1 2 2 3 1 1 3 2
split_gain=223.226 158.495 121.306 75.9991 63.1355 45.3133 47.0895 29.4043 29.3198 49.2467 43.2793 21.6599 27.3192 31.8766
threshold=1.5000000000000002 1.0000000180025095e-35 1.5000000000000002 1.0000000180025095e-35 2.5000000000000004 1.0000000180025095e-35 1.0000000180025095e-35 1.0000000180025095e-35 1.0000000180025095e-35 1.0000000180025095e-35 1.0000000180025095e-35 1.0000000180025095e-35 1.0000000180025095e-35 1.0000000180025095e-35
decision_type=2 2 2 2 2 2 2 2 2 2 2 2 2 2
left_child=1 2 11 4 5 6 -2 -4 9 10 -3 -1 -13 -14
right_child=3 8 7 -5 -6 -7 -8 -9 -10 -11 -12 12 13 -15
leaf_value=-0.057517642718507213 -0.057517642718507213 -0.071569508224427078 -0.0109950130951844 0.057135667042675566 0.057135667042675566 0.057135667042675566 0.057135667042675566 0.057135667042675566 0.057382607339225171 0.060109526043271036 0.10313017248785331 -0.057517642718507213 -0.057517642718507192 0.057135667042675566
leaf_weight=239.50806611776352 54.650559678673744 21.476049363613132 29.906656019389629 162.18993690609932 38.580220840871334 15.191645033657549 10.710656210780142 33.662062376737595 55.958580024540424 21.264623165130615 4.2460846900939933 26.813996016979218 9.6575833112001437 16.284569136798382
leaf_count=2108 481 102 182 1484 353 139 98 308 500 152 17 236 85 149
internal_value=-0.000203963 -0.0217069 -0.0375142 0.0348628 0.00454014 -0.0206501 -0.0387296 0.0250828 0.0329313 0.00381119 -0.0427309 -0.0511293 -0.0221269 0.0144532
internal_weight=740.101 458.778 355.833 281.323 119.133 80.5529 65.3612 63.5687 102.945 46.9868 25.7221 292.264 52.7561 25.9422
internal_count=6394 3839 3068 2555 1071 718 579 490 771 271 119 2578 470 234
is_linear=0
shrinkage=0.05


Tree=28
num_leaves=15
num_cat=0
split_feature=2 0 3 3 2 0 1 2 2 3 1 1 3 2
split_gain=210.475 149.079 114.91 71.7869 59.6257 42.7885 44.4604 27.9993 27.9012 46.0981 39.844 20.4447 25.7918 30.102
threshold=1.5000000000000002 1.0000000180025095e-35 1.5000000000000002 1.0000000180025095e-35 2.5000000000000004 1.0000000180025095e-35 1.0000000180025095e-35 1.0000000180025095e-35 1.0000000180025095e-35 1.0000000180025095e-35 1.0000000180025095e-35 1.0000000180025095e-35 1.0000000180025095e-35 1.0000000180025095e-35
decision_type=2 2 2 2 2 2 2 2 2 2 2 2 2 2
left_child=1 2 11 4 5 6 -2 -4 9 10 -3 -1 -13 -14
right_child=3 8 7 -5 -6 -7 -8 -9 -10 -11 -12 12 13 -15
leaf_value=-0.057097449230818512 -0.057097449230818512 -0.07007974405163285 -0.010468460905728295 0.056739398511418904 0.056739398511418904 0.056739398511418904 0.056739398511418904 0.056739398511418904 0.056971093133085397 0.059519747272179818 0.097923925180422408 -0.057097449230818512 -0.057097449230818498 0.056739398511418897
leaf_weight=229.46123903989792 52.358091071248055 20.851786941289905 29.842078521847725 155.33001917600632 36.948447957634926 14.549105569720266 10.257642775774 32.238305866718292 53.604184105992317 20.422874093055725 4.2480897158384314 25.689208924770355 9.2524693161249161 15.595803812146187
leaf_count=2108 481 102 182 1484 353 139 98 308 500 152 17 236 85 149
internal_value=-0.000201405 -0.0214659 -0.0371115 0.0346187 0.00450815 -0.0205015 -0.0384488 0.0244325 0.0325255 0.00374024 -0.0416456 -0.0507568 -0.0219675 0.0143513
internal_weight=710.649 441.206 342.079 269.443 114.113 77.1648 62.6157 62.0804 99.1269 45.5228 25.0999 279.999 50.5375 24.8483
internal_count=6394 3839 3068 2555 1071 718 579 490 771 271 119 2578 470 234
is_linear=0
shrinkage=0.05


Tree=29
num_leaves=15
num_cat=0
split_feature=2 0 3 3 2 0 1 2 2 3 1 1 3 2
split_gain=198.529 140.268 108.921 67.8345 56.3336 40.4208 41.9956 26.6758 26.545 43.1998 36.7945 19.306 24.3601 28.4377
threshold=1.5000000000000002 1.0000000180025095e-35 1.5000000000000002 1.0000000180025095e-35 2.5000000000000004 1.0000000180025095e-35 1.0000000180025095e-35 1.0000000180025095e-35 1.0000000180025095e-35 1.0000000180025095e-35 1.0000000180025095e-35 1.0000000180025095e-35 1.0000000180025095e-35 1.0000000180025095e-35
decision_type=2 2 2 2 2 2 2 2 2 2 2 2 2 2
left_child=1 2 11 4 5 6 -2 -4 9 10 -3 -1 -13 -14
right_child=3 8 7 -5 -6 -7 -8 -9 -10 -11 -12 12 13 -15
leaf_value=-0.056703554772032344 -0.056703554772032344 -0.068720737089661421 -0.0099661160382477371 0.056367653068326001 0.056367653068326001 0.056367653068326001 0.056367653068326001 0.056367653068326001 0.056585221105861533 0.058969668063772351 0.093453475099683214 -0.056703554772032344 -0.05670355477203233 0.056367653068325987
leaf_weight=219.74806648492813 50.14175520837307 20.217034041881565 29.780572004616261 148.70422625541687 35.372366487979889 13.928495585918425 9.8200904130935651 30.863141298294067 51.328781582415104 19.603453159332275 4.2291446924209586 24.601775944232941 8.8608091324567795 14.930545628070831
leaf_count=2108 481 102 182 1484 353 139 98 308 500 152 17 236 85 149
internal_value=-0.000198932 -0.021235 -0.0367214 0.0343897 0.00447814 -0.0203621 -0.0381856 0.0237928 0.0321494 0.00367558 -0.0406649 -0.0504076 -0.0218181 0.0142556
internal_weight=682.13 424.163 328.785 257.967 109.263 73.8903 59.9618 60.6437 95.3784 44.0496 24.4462 268.141 48.3931 23.7914
internal_count=6394 3839 3068 2555 1071 718 579 490 771 271 119 2578 470 234
is_linear=0
shrinkage=0.05


Tree=30
num_leaves=15
num_cat=0
split_feature=2 0 3 3 2 0 1 2 2 3 1 3 1 1
split_gain=188.118 147.531 94.6511 63.9093 53.0415 37.3333 41.7094 29.5941 22.1282 37.7197 38.5538 19.5394 26.0931 15.2464
threshold=1.5000000000000002 1.0000000180025095e-35 1.5000000000000002 1.0000000180025095e-35 2.5000000000000004 1.0000000180025095e-35 1.0000000180025095e-35 1.0000000180025095e-35 1.0000000180025095e-35 1.0000000180025095e-35 1.0000000180025095e-35 2.5000000000000004 1.0000000180025095e-35 1.0000000180025095e-35
decision_type=2 2 2 2 2 2 2 2 2 2 2 2 2 2
left_child=1 2 13 4 5 6 -2 11 9 10 -3 12 -4 -1
right_child=3 8 7 -5 -6 -7 -8 -9 -10 -11 -12 -13 -14 -15
leaf_value=-0.056334015244335602 -0.056334015244335602 -0.06747744013299542 -0.06131659684300407 0.056018649770651845 0.056018649770651845 0.056018649770651845 0.056018649770651845 0.056018649770651845 0.056229501537909302 0.05845602109345302 0.089576572778105878 0.074035323935146044 0.064621608154914925 -0.024239313621751052
leaf_weight=208.57097126543522 48.101056531071663 18.808609515428547 18.962707042694099 143.74921811372042 34.139240592718124 13.23375056684017 9.9732612967491132 28.86491971462965 50.941010609269142 19.920649372041225 4.9322980642318717 5.0596293061971656 5.252075493335723 44.984064429998398
leaf_count=2090 482 98 126 1499 356 138 104 301 518 161 20 25 30 456
internal_value=0.000129846 -0.0208475 -0.0374463 0.0343318 0.00476763 -0.0197692 -0.0370394 0.0200937 0.0338419 0.00772175 -0.0348486 -0.0153287 -0.0340012 -0.05064
internal_weight=655.493 406.297 311.694 249.197 105.447 71.3081 58.0743 58.1393 94.6026 43.6616 23.7409 29.2744 24.2148 253.555
internal_count=6404 3825 3028 2579 1080 724 586 482 797 279 118 181 156 2546
is_linear=0
shrinkage=0.05


Tree=31
num_leaves=15
num_cat=0
split_feature=2 0 3 3 2 0 1 2 2 3 1 3 1 1
split_gain=177.461 138.654 88.8092 60.4334 50.1495 35.2938 39.427 27.9982 21.0847 35.4466 35.7556 18.2517 24.5205 15.6698
threshold=1.5000000000000002 1.0000000180025095e-35 1.5000000000000002 1.0000000180025095e-35 2.5000000000000004 1.0000000180025095e-35 1.0000000180025095e-35 1.0000000180025095e-35 1.0000000180025095e-35 1.0000000180025095e-35 1.0000000180025095e-35 2.5000000000000004 1.0000000180025095e-35 1.0000000180025095e-35
decision_type=2 2 2 2 2 2 2 2 2 2 2 2 2 2
left_child=1 2 13 4 5 6 -2 11 9 10 -3 12 -4 -1
right_child=3 8 7 -5 -6 -7 -8 -9 -10 -11 -12 -13 -14 -15
leaf_value=-0.055987057351602636 -0.055987057351602636 -0.066337017282439431 -0.06064354906307954 0.055690764979425544 0.055690764979425544 0.055690764979425544 0.055690764979425544 0.055690764979425544 0.055889025076074531 0.057975889508684042 0.0861855841775368 0.072372966015864071 0.063706623297317716 -0.023214721906716463
leaf_weight=199.59717966616154 46.031502678990364 18.191015064716343 18.232983648777015 137.52315884083509 32.660603433847427 12.660570994019507 9.5412998795509321 27.614723689854145 48.744305327534676 19.102054513990879 4.871540665626525 4.9205786362290374 5.0658524036407462 44.630262210965157
leaf_count=2090 482 98 126 1499 356 138 104 301 518 161 20 25 30 456
internal_value=0.000130068 -0.0206028 -0.0369921 0.034129 0.00473928 -0.0196492 -0.0368131 0.0198985 0.0334934 0.007603 -0.0341194 -0.0151267 -0.0336062 -0.0499982
internal_weight=629.388 390.97 300.062 238.417 100.894 68.2334 55.5728 55.8341 90.9089 42.1646 23.0626 28.2194 23.2988 244.227
internal_count=6404 3825 3028 2579 1080 724 586 482 797 279 118 181 156 2546
is_linear=0
shrinkage=0.05


Tree=32
num_leaves=15
num_cat=0
split_feature=2 0 3 3 2 0 1 2 2 3 1 3 1 1
split_gain=167.457 130.337 83.316 57.165 47.4308 33.377 37.2823 26.4961 20.085 33.3369 33.2294 17.0696 23.0596 16.0833
threshold=1.5000000000000002 1.0000000180025095e-35 1.5000000000000002 1.0000000180025095e-35 2.5000000000000004 1.0000000180025095e-35 1.0000000180025095e-35 1.0000000180025095e-35 1.0000000180025095e-35 1.0000000180025095e-35 1.0000000180025095e-35 2.5000000000000004 1.0000000180025095e-35 1.0000000180025095e-35
decision_type=2 2 2 2 2 2 2 2 2 2 2 2 2 2
left_child=1 2 13 4 5 6 -2 11 9 10 -3 12 -4 -1
right_child=3 8 7 -5 -6 -7 -8 -9 -10 -11 -12 -13 -14 -15
leaf_value=-0.055661071919474142 -0.055661071919474142 -0.06528842799003326 -0.060017266437461969 0.055382502063205635 0.055382502063205635 0.055382502063205635 0.055382502063205635 0.055382502063205635 0.055569051993130052 0.057526627963276115 0.083197527210262759 0.070856019406849963 0.062860654106739453 -0.022221945958739206
leaf_weight=190.94650112092495 44.036465808749199 17.574644356966022 17.520131886005409 131.52576180547476 31.236271649599075 12.108442381024359 9.1252029538154584 26.410443164408207 46.627244919538498 18.30874003469944 4.796063005924224 4.778236672282218 4.8819856345653525 44.301559671759605
leaf_count=2090 482 98 126 1499 356 138 104 301 518 161 20 25 30 456
internal_value=0.000130358 -0.0203652 -0.0365468 0.0339383 0.00471263 -0.0195364 -0.0366004 0.0197164 0.033169 0.0074937 -0.0334545 -0.0149394 -0.0332391 -0.0493639
internal_weight=604.178 376.146 288.839 228.032 96.5064 65.2701 53.1617 53.5908 87.3067 40.6794 22.3707 27.1804 22.4021 235.248
internal_count=6404 3825 3028 2579 1080 724 586 482 797 279 118 181 156 2546
is_linear=0
shrinkage=0.05


Tree=33
num_leaves=15
num_cat=0
split_feature=2 0 3 3 2 0 1 2 2 3 1 1 3 2
split_gain=158.059 122.54 78.1495 54.0898 44.8735 31.5743 35.2657 25.0815 19.1282 31.3757 30.9383 16.4843 22.0946 25.2897
threshold=1.5000000000000002 1.0000000180025095e-35 1.5000000000000002 1.0000000180025095e-35 2.5000000000000004 1.0000000180025095e-35 1.0000000180025095e-35 1.0000000180025095e-35 1.0000000180025095e-35 1.0000000180025095e-35 1.0000000180025095e-35 1.0000000180025095e-35 1.0000000180025095e-35 1.0000000180025095e-35
decision_type=2 2 2 2 2 2 2 2 2 2 2 2 2 2
left_child=1 2 11 4 5 6 -2 -4 9 10 -3 -1 -13 -14
right_child=3 8 7 -5 -6 -7 -8 -9 -10 -11 -12 12 13 -15
leaf_value=-0.055354578632762878 -0.055354578632762878 -0.064322158877635691 -0.014765465290586893 0.055092511798050726 0.055092511798050726 0.055092511798050726 0.055092511798050726 0.055092511798050726 0.055268138841733899 0.057105864933119234 0.080547341791253002 -0.055907711932689896 -0.055907711932689889 0.056452957987199438
leaf_weight=182.61415511369705 42.114843428134918 16.962245702743534 26.159838423132896 125.75305105000734 29.865300983190536 11.576998695731161 8.7246946692466718 25.251279763877392 44.588576748967171 17.540879867970943 4.7083747386932364 22.491717636585236 7.9382532835006723 13.566268041729927
leaf_count=2090 482 98 181 1499 356 138 104 301 518 161 20 238 84 134
internal_value=0.000130708 -0.0201338 -0.0361089 0.0337589 0.00468756 -0.0194304 -0.0364005 0.0195462 0.0328665 0.00739288 -0.0328464 -0.0487354 -0.0212612 0.0149758
internal_weight=579.856 361.822 278.022 218.035 92.2818 62.4165 50.8395 51.4111 83.8001 39.2115 21.6706 226.61 43.9962 21.5045
internal_count=6404 3825 3028 2579 1080 724 586 482 797 279 118 2546 456 218
is_linear=0
shrinkage=0.05


Tree=34
num_leaves=15
num_cat=0
split_feature=2 0 3 3 2 0 1 2 2 3 1 3 1 1
split_gain=149.347 115.481 74.3293 51.1945 42.4665 29.8779 33.3682 23.7958 18.2134 29.5496 28.8523 15.9686 21.8196 15.6186
threshold=1.5000000000000002 1.0000000180025095e-35 1.5000000000000002 1.0000000180025095e-35 2.5000000000000004 1.0000000180025095e-35 1.0000000180025095e-35 1.0000000180025095e-35 1.0000000180025095e-35 1.0000000180025095e-35 1.0000000180025095e-35 2.5000000000000004 1.0000000180025095e-35 1.0000000180025095e-35
decision_type=2 2 2 2 2 2 2 2 2 2 2 2 2 2
left_child=1 2 13 4 5 6 -2 11 9 10 -3 12 -4 -1
right_child=3 8 7 -5 -6 -7 -8 -9 -10 -11 -12 -13 -14 -15
leaf_value=-0.05506623225038746 -0.05506623225038746 -0.063429934282950615 -0.059295475417582677 0.054819540740382845 0.054819540740382845 0.054819540740382845 0.054819540740382845 0.054819540740382845 0.054984982866850766 0.056711447663823689 0.078183321420597918 0.069749553099432579 0.062256752627909445 -0.021135922757179501
leaf_weight=174.59452025592327 40.265339121222496 16.356159985065464 16.655932992696769 120.20057037472725 28.546633124351501 11.065829694271086 8.3394658565521222 24.13633868098259 42.626855999231339 16.798502802848816 4.6106690168380728 4.6641925722360602 4.7434446215629569 42.092966943979263
leaf_count=2090 482 98 126 1499 356 138 104 301 518 161 20 25 30 456
internal_value=0.000130496 -0.0199501 -0.0357746 0.0335901 0.00466396 -0.0193306 -0.0362124 0.019047 0.0325842 0.00729968 -0.0322888 -0.0140804 -0.0323519 -0.048475
internal_weight=555.697 347.28 266.887 208.418 88.2173 59.6706 48.6048 50.1999 80.3922 37.7653 20.9668 26.0636 21.3994 216.687
internal_count=6404 3825 3028 2579 1080 724 586 482 797 279 118 181 156 2546
is_linear=0
shrinkage=0.05


Tree=35
num_leaves=15
num_cat=0
split_feature=2 0 3 3 2 0 1 2 1 3 2 2 3 1
split_gain=139.209 106.62 76.0548 46.9618 38.5195 28.7977 32.2495 20.8781 17.7058 22.5275 24.7291 17.1701 28.662 23.499
threshold=1.5000000000000002 1.0000000180025095e-35 1.5000000000000002 1.0000000180025095e-35 2.5000000000000004 1.0000000180025095e-35 1.0000000180025095e-35 1.0000000180025095e-35 1.0000000180025095e-35 1.0000000180025095e-35 1.0000000180025095e-35 1.0000000180025095e-35 1.0000000180025095e-35 1.0000000180025095e-35
decision_type=2 2 2 2 2 2 2 2 2 2 2 2 2 2
left_child=1 2 8 4 5 6 -2 -4 -1 -10 -11 12 13 -3
right_child=3 11 7 -5 -6 -7 -8 -9 9 10 -12 -13 -14 -15
leaf_value=-0.054794795237527387 -0.054794795237527387 -0.062604526145668457 -0.010309409047821157 0.054562444097584921 0.054562444097584921 0.054562444097584921 0.054562444097584921 0.054562444097584921 -0.055469647447138531 -0.055469647447138518 0.056229036931305487 0.054718638761996619 0.056341422080054229 0.07606379649815749
leaf_weight=169.19691507518291 37.927576526999474 15.115164518356325 25.51159031689167 113.1010248363018 26.895975418388844 11.034246325492857 8.199058033525942 24.137413837015629 21.243032872676849 7.643936514854432 14.086586520075798 41.056942284107208 15.981628894805906 3.8291340768337241
leaf_count=2119 475 94 184 1476 351 144 107 315 239 86 143 522 160 17
internal_value=0.000138984 -0.0193468 -0.0344795 0.0335252 0.005219 -0.0179986 -0.0353564 0.0212288 -0.0475155 -0.0188552 0.0169379 0.0327967 0.00702654 -0.0345761
internal_weight=534.96 337.802 261.819 197.158 84.0569 57.1609 46.1266 49.649 212.17 42.9736 21.7305 75.9829 34.9259 18.9443
internal_count=6432 3879 3086 2553 1077 726 582 499 2587 468 229 793 271 111
is_linear=0
shrinkage=0.05


Tree=36
num_leaves=15
num_cat=0
split_feature=2 0 3 3 2 0 1 2 1 3 2 1 3 2
split_gain=131.604 100.518 72.313 44.4713 36.4729 27.2654 30.5313 19.9083 16.7889 21.3118 23.3833 16.5202 20.559 16.34
threshold=1.5000000000000002 1.0000000180025095e-35 1.5000000000000002 1.0000000180025095e-35 2.5000000000000004 1.0000000180025095e-35 1.0000000180025095e-35 1.0000000180025095e-35 1.0000000180025095e-35 1.0000000180025095e-35 1.0000000180025095e-35 1.0000000180025095e-35 2.5000000000000004 1.0000000180025095e-35
decision_type=2 2 2 2 2 2 2 2 2 2 2 2 2 2
left_child=1 2 8 4 5 6 -2 11 -1 -10 -11 12 -4 -3
right_child=3 13 7 -5 -6 -7 -8 -9 9 10 -12 -13 -14 -15
leaf_value=-0.054539135385114151 -0.054539135385114151 0.0069509459055585024 -0.058670467398969195 0.054320178040999423 0.054320178040999423 0.054320178040999423 0.054320178040999423 0.054320178040999423 -0.055174506575775273 -0.055174506575775252 0.055888451570536193 0.061107680688752476 0.070081732715492104 0.054467461701886183
leaf_weight=161.6804476082325 36.242667585611343 33.579169288277626 15.365024805068975 108.05270487070084 25.695460304617882 10.541727304458616 7.8330890387296668 23.060028478503227 20.312352329492569 7.3090472817420968 13.479163974523544 6.2083905786275855 3.8843208849430075 39.230114221572876
leaf_count=2119 475 271 122 1476 351 144 107 315 239 86 143 43 19 522
internal_value=0.000138637 -0.0191777 -0.0341658 0.033375 0.00519545 -0.0179159 -0.0351928 0.0206677 -0.0472854 -0.0187508 0.0168392 -0.0098152 -0.0326896 0.0325532
internal_weight=512.474 324.108 251.299 188.366 80.3129 54.6175 44.0758 48.5178 202.781 41.1006 20.7882 25.4577 19.2493 72.8093
internal_count=6432 3879 3086 2553 1077 726 582 499 2587 468 229 184 141 793
is_linear=0
shrinkage=0.05


Tree=37
num_leaves=15
num_cat=0
split_feature=2 0 3 3 2 0 1 2 2 3 1 1 3 2
split_gain=124.4 94.7264 68.5008 42.1229 34.5435 25.8211 28.9119 18.8776 16.0577 27.1008 21.9305 15.922 20.1676 22.1178
threshold=1.5000000000000002 1.0000000180025095e-35 1.5000000000000002 1.0000000180025095e-35 2.5000000000000004 1.0000000180025095e-35 1.0000000180025095e-35 1.0000000180025095e-35 1.0000000180025095e-35 1.0000000180025095e-35 1.0000000180025095e-35 1.0000000180025095e-35 1.0000000180025095e-35 1.0000000180025095e-35
decision_type=2 2 2 2 2 2 2 2 2 2 2 2 2 2
left_child=1 2 11 4 5 6 -2 -4 9 10 -3 -1 -13 -14
right_child=3 8 7 -5 -6 -7 -8 -9 -10 -11 -12 12 13 -15
leaf_value=-0.054298204800758178 -0.054298204800758178 -0.061922198616806784 -0.0097149376088105661 0.054091766418526158 0.054091766418526158 0.054091766418526158 0.054091766418526158 0.054091766418526158 0.054230713789007373 0.055952496177610604 0.073987484944819951 -0.054896743962535556 -0.054896743962535549 0.055568383664840605
leaf_weight=154.46034835278988 34.624193236231804 14.613745659589769 24.470555245876312 103.20596095919609 24.542880959808826 10.068874239921568 7.4817329421639434 22.025662399828434 37.475626409053802 15.210734605789183 3.7246642559766761 19.41699530929327 6.9868686050176629 12.893759667873383
leaf_count=2119 475 94 184 1476 351 144 107 315 522 160 17 239 86 143
internal_value=0.000137012 -0.0189932 -0.03399 0.0332334 0.00517325 -0.0178379 -0.0350386 0.0205109 0.0317364 0.00660946 -0.034318 -0.0470686 -0.0186525 0.0167464
internal_weight=491.203 311.279 240.254 179.924 76.7177 52.1748 42.1059 46.4962 71.0248 33.5491 18.3384 193.758 39.2976 19.8806
internal_count=6432 3879 3086 2553 1077 726 582 499 793 271 111 2587 468 229
is_linear=0
shrinkage=0.05


Tree=38
num_leaves=15
num_cat=0
split_feature=2 0 3 3 2 0 1 2 1 3 2 3 1 1
split_gain=117.654 89.3315 65.186 39.9075 32.7237 24.459 27.385 18.0118 15.5227 19.3927 15.2839 25.563 20.5386 15.1021
threshold=1.5000000000000002 1.0000000180025095e-35 1.5000000000000002 1.0000000180025095e-35 2.5000000000000004 1.0000000180025095e-35 1.0000000180025095e-35 1.0000000180025095e-35 1.0000000180025095e-35 2.5000000000000004 1.0000000180025095e-35 1.0000000180025095e-35 1.0000000180025095e-35 1.0000000180025095e-35
decision_type=2 2 2 2 2 2 2 2 2 2 2 2 2 2
left_child=1 2 13 4 5 6 -2 8 9 -4 11 12 -3 -1
right_child=3 10 7 -5 -6 -7 -8 -9 -10 -11 -12 -13 -14 -15
leaf_value=-0.054071042660611628 -0.054071042660611628 -0.06120634499353117 -0.058097352811796565 0.053876316369116495 0.053876316369116495 0.053876316369116495 0.053876316369116495 0.053876316369116495 0.060555323462667322 0.068905325680727103 0.054007459907114391 0.055628584478065596 0.072276784806381 -0.018560083085815606
leaf_weight=147.52888129651546 33.070419356226921 14.059469640254976 14.633905023336416 98.555206596851349 23.436908885836601 9.6151421070098859 7.1445847600698462 21.033123359084129 6.0058748722076407 3.7827024310827246 35.79155270755291 14.551013708114622 3.6247139126062384 37.563362941145897
leaf_count=2119 475 94 122 1476 351 144 107 315 43 19 522 160 17 468
internal_value=0.000136726 -0.0188327 -0.0336888 0.0330998 0.00515231 -0.0177643 -0.0348931 0.0199608 -0.00924784 -0.0320115 0.0315158 0.00654273 -0.0338464 -0.0468643
internal_weight=470.397 298.575 230.548 171.822 73.2671 49.8301 40.215 45.4556 24.4225 18.4166 68.0267 32.2352 17.6842 185.092
internal_count=6432 3879 3086 2553 1077 726 582 499 184 141 793 271 111 2587
is_linear=0
shrinkage=0.05


Tree=39
num_leaves=15
num_cat=0
split_feature=2 0 3 3 2 0 1 2 1 3 2 1 3 2
split_gain=111.212 84.0786 61.1617 37.8166 31.0065 23.1739 25.9445 17.0864 15.4176 19.3929 20.831 14.6144 18.2387 14.5459
threshold=1.5000000000000002 1.0000000180025095e-35 1.5000000000000002 1.0000000180025095e-35 2.5000000000000004 1.0000000180025095e-35 1.0000000180025095e-35 1.0000000180025095e-35 1.0000000180025095e-35 1.0000000180025095e-35 1.0000000180025095e-35 1.0000000180025095e-35 2.5000000000000004 1.0000000180025095e-35
decision_type=2 2 2 2 2 2 2 2 2 2 2 2 2 2
left_child=1 2 8 4 5 6 -2 11 -1 -10 -11 12 -4 -3
right_child=3 13 7 -5 -6 -7 -8 -9 9 10 -12 -13 -14 -15
leaf_value=-0.053856757971017903 -0.053856757971017903 0.0064805841473321614 -0.057640324793181152 0.053672999657097098 0.053672999657097098 0.053672999657097098 0.053672999657097098 0.053672999657097098 -0.054549940567188898 -0.054549940567188884 0.05536606808746232 0.059939413809974654 0.067646515344663233 0.053796827678472318
leaf_weight=140.87804203480482 31.579551659524441 30.954354256391525 14.027774184942251 94.094756305217743 22.376192048192024 9.1799762248992902 6.8212323337793341 20.081197991967201 18.271944768726826 6.5748420506715783 12.516276746988297 5.7701765596866599 3.6634621769189826 34.175906091928482
leaf_count=2119 475 271 122 1476 351 144 107 315 239 86 143 43 19 522
internal_value=0.000137148 -0.0186382 -0.0333059 0.0329738 0.00513256 -0.017695 -0.034756 0.0198182 -0.0462836 -0.0177291 0.0175118 -0.00915904 -0.0316962 0.0313089
internal_weight=450.966 286.914 221.784 164.052 69.957 47.5808 38.4008 43.5426 178.241 37.3631 19.0911 23.4614 17.6912 65.1303
internal_count=6432 3879 3086 2553 1077 726 582 499 2587 468 229 184 141 793
is_linear=0
shrinkage=0.05


Tree=40
num_leaves=15
num_cat=0
split_feature=2 0 3 3 2 0 1 2 3 2 1 1 3 2
split_gain=105.087 76.8459 53.7436 38.0608 30.6515 21.4626 24.1353 17.1296 15.8288 25.0603 18.4506 15.5718 19.6452 20.2362
threshold=1.5000000000000002 1.0000000180025095e-35 1.5000000000000002 1.0000000180025095e-35 2.5000000000000004 1.0000000180025095e-35 1.0000000180025095e-35 1.0000000180025095e-35 1.0000000180025095e-35 1.0000000180025095e-35 1.0000000180025095e-35 1.0000000180025095e-35 1.0000000180025095e-35 1.0000000180025095e-35
decision_type=2 2 2 2 2 2 2 2 2 2 2 2 2 2
left_child=1 2 11 4 5 6 -2 -4 9 10 -3 -1 -13 -14
right_child=3 8 7 -5 -6 -7 -8 -9 -10 -11 -12 12 13 -15
leaf_value=-0.053654541030326353 -0.053654541030326353 -0.060609547315098156 -0.011293816881107753 0.053481057680582089 0.053481057680582089 0.053481057680582089 0.053481057680582089 0.053481057680582089 0.054294916353717818 0.053787499032503322 0.070589631541412221 -0.054308388449745032 -0.054308388449745004 0.055077051667700327
leaf_weight=134.11878197640181 31.038374058902264 14.151773959398271 22.676494970917702 90.123078912496567 21.1159408390522 8.2759883403778058 6.3286969661712638 18.560120910406113 31.7516208589077 14.138824939727785 3.3056488037109366 18.113506376743317 6.3543348982930192 12.636213853955269
leaf_count=2113 489 98 185 1481 347 136 104 305 453 216 16 248 87 151
internal_value=-0.000387008 -0.0189711 -0.0333824 0.0322848 0.00367032 -0.0193737 -0.0355095 0.0178606 0.0293626 0.0043076 -0.0357663 -0.0457236 -0.0170559 0.0184761
internal_weight=432.689 275.807 212.459 156.882 66.759 45.6431 37.3671 41.2366 63.3479 31.5962 17.4574 171.223 37.1041 18.9905
internal_count=6429 3872 3089 2557 1076 729 593 490 783 330 114 2599 486 238
is_linear=0
shrinkage=0.05


Tree=41
num_leaves=15
num_cat=0
split_feature=2 0 3 3 2 0 1 2 3 2 1 1 3 2
split_gain=99.4369 72.499 51.2423 36.0806 29.0544 20.3431 22.8751 16.3046 15.0335 23.6777 17.3175 14.7803 18.6062 19.1567
threshold=1.5000000000000002 1.0000000180025095e-35 1.5000000000000002 1.0000000180025095e-35 2.5000000000000004 1.0000000180025095e-35 1.0000000180025095e-35 1.0000000180025095e-35 1.0000000180025095e-35 1.0000000180025095e-35 1.0000000180025095e-35 1.0000000180025095e-35 1.0000000180025095e-35 1.0000000180025095e-35
decision_type=2 2 2 2 2 2 2 2 2 2 2 2 2 2
left_child=1 2 11 4 5 6 -2 -4 9 10 -3 -1 -13 -14
right_child=3 8 7 -5 -6 -7 -8 -9 -10 -11 -12 12 13 -15
leaf_value=-0.053463625293933482 -0.053463625293933482 -0.059985607395921285 -0.010757790376635643 0.053299772942825951 0.053299772942825951 0.053299772942825951 0.053299772942825951 0.053299772942825951 0.054069378389611789 0.053589161095648777 0.069186330695931247 -0.054080644308605541 -0.05408064430860552 0.054804983881856909
leaf_weight=128.02178744971752 29.627380058169365 13.59804341197014 22.617617435753345 86.011926777660847 20.152693174779415 7.8984618782997122 6.0400002598762503 17.713462300598621 30.325874269008636 13.497784763574602 3.2065739631652823 17.300824224948883 6.0692407563328752 12.07809841632843
leaf_count=2113 489 98 185 1481 347 136 104 305 453 216 16 248 87 151
internal_value=-0.000383787 -0.0188195 -0.0330991 0.0321743 0.00365771 -0.0193057 -0.0353841 0.0173764 0.0291811 0.00427356 -0.0353377 -0.0455523 -0.0169805 0.018389
internal_weight=414.16 264.429 203.801 149.73 63.7185 43.5658 35.6674 40.3311 60.6283 30.3024 16.8046 163.47 35.4482 18.1473
internal_count=6429 3872 3089 2557 1076 729 593 490 783 330 114 2599 486 238
is_linear=0
shrinkage=0.05


Tree=42
num_leaves=15
num_cat=0
split_feature=2 0 3 3 2 0 1 2 3 2 1 1 3 2
split_gain=94.1036 68.4005 48.8823 34.2095 27.5457 19.2856 21.6849 15.5242 14.2788 22.3804 16.2682 14.0305 17.6262 18.1395
threshold=1.5000000000000002 1.0000000180025095e-35 1.5000000000000002 1.0000000180025095e-35 2.5000000000000004 1.0000000180025095e-35 1.0000000180025095e-35 1.0000000180025095e-35 1.0000000180025095e-35 1.0000000180025095e-35 1.0000000180025095e-35 1.0000000180025095e-35 1.0000000180025095e-35 1.0000000180025095e-35
decision_type=2 2 2 2 2 2 2 2 2 2 2 2 2 2
left_child=1 2 11 4 5 6 -2 -4 9 10 -3 -1 -13 -14
right_child=3 8 7 -5 -6 -7 -8 -9 -10 -11 -12 12 13 -15
leaf_value=-0.053283312875973259 -0.053283312875973259 -0.059404227699301065 -0.010245685628396596 0.053128505815507016 0.053128505815507016 0.053128505815507016 0.053128505815507016 0.053128505815507016 0.053856485319913341 0.053401881192731995 0.067903778586426586 -0.053865823408010598 -0.053865823408010577 0.054548728421175752
leaf_weight=122.17978353798389 28.275397136807442 13.058234035968782 22.562153242528439 82.074162270873785 19.230070430785418 7.5368575751781455 5.7634793221950522 16.902511473745108 28.958010300993919 12.883378922939302 3.1063239574432364 16.521024525165558 5.7956819906830797 11.541648954153061
leaf_count=2113 489 98 185 1481 347 136 104 305 453 216 16 248 87 151
internal_value=-0.000380626 -0.0186701 -0.0328171 0.03207 0.00364579 -0.0192415 -0.0352656 0.0168972 0.0290106 0.00424173 -0.0349396 -0.0453906 -0.0169094 0.0183069
internal_weight=396.389 253.509 195.503 142.88 60.8058 41.5757 34.0389 39.4647 58.0059 29.0479 16.1646 156.038 33.8584 17.3373
internal_count=6429 3872 3089 2557 1076 729 593 490 783 330 114 2599 486 238
is_linear=0
shrinkage=0.05


Tree=43
num_leaves=15
num_cat=0
split_feature=2 0 3 3 2 0 1 2 3 2 1 3 1 1
split_gain=89.0676 64.5347 46.6545 32.441 26.1197 18.2862 20.5603 14.7852 13.5627 21.1621 15.2946 13.3846 17.6191 13.3201
threshold=1.5000000000000002 1.0000000180025095e-35 1.5000000000000002 1.0000000180025095e-35 2.5000000000000004 1.0000000180025095e-35 1.0000000180025095e-35 1.0000000180025095e-35 1.0000000180025095e-35 1.0000000180025095e-35 1.0000000180025095e-35 2.5000000000000004 1.0000000180025095e-35 1.0000000180025095e-35
decision_type=2 2 2 2 2 2 2 2 2 2 2 2 2 2
left_child=1 2 13 4 5 6 -2 11 9 10 -3 12 -4 -1
right_child=3 8 7 -5 -6 -7 -8 -9 -10 -11 -12 -13 -14 -15
leaf_value=-0.053112949099901254 -0.053112949099901254 -0.0588618491599796 -0.056983165051286949 0.052966629086602948 0.052966629086602948 0.052966629086602948 0.052966629086602948 0.052966629086602948 0.053655451656284242 0.053224979277634532 0.066728395742367524 0.065767110808555559 0.060120266280109282 -0.016842373214390121
leaf_weight=116.58437130972743 26.980481576174498 12.532925575971602 13.656295530498033 78.303926173597574 18.34669978544116 7.190637379884719 5.4987227022647849 16.126061771064997 27.646309807896614 12.29475125670433 3.0055429935455331 4.6536713838577262 4.1999231278896323 32.332814425230026
leaf_count=2113 489 98 127 1481 347 136 104 305 453 216 16 28 30 486
internal_value=-0.00037752 -0.0185225 -0.0325357 0.0319714 0.00363452 -0.0191808 -0.0351537 0.0164231 0.0288504 0.00421194 -0.0345694 -0.0097566 -0.0294395 -0.0452379
internal_weight=379.353 243.033 187.553 136.32 58.0165 39.6698 32.4792 38.636 55.4795 27.8332 15.5385 22.5099 17.8562 148.917
internal_count=6429 3872 3089 2557 1076 729 593 490 783 330 114 185 157 2599
is_linear=0
shrinkage=0.05


Tree=44
num_leaves=15
num_cat=0
split_feature=2 0 3 3 2 0 1 2 1 3 2 3 2 1
split_gain=84.2457 60.757 43.7534 30.7687 24.7717 17.3416 19.4973 14.0327 13.5757 16.9368 17.0976 12.8831 20.0171 14.3899
threshold=1.5000000000000002 1.0000000180025095e-35 1.5000000000000002 1.0000000180025095e-35 2.5000000000000004 1.0000000180025095e-35 1.0000000180025095e-35 1.0000000180025095e-35 1.0000000180025095e-35 1.0000000180025095e-35 1.0000000180025095e-35 1.0000000180025095e-35 1.0000000180025095e-35 1.0000000180025095e-35
decision_type=2 2 2 2 2 2 2 2 2 2 2 2 2 2
left_child=1 2 8 4 5 6 -2 -4 -1 -10 -11 12 13 -3
right_child=3 11 7 -5 -6 -7 -8 -9 9 10 -12 -13 -14 -15
leaf_value=-0.052951922464491201 -0.052951922464491201 -0.058355273881936932 -0.0096725766158047843 0.052813582817677729 0.052813582817677729 0.052813582817677729 0.052813582817677729 0.052813582817677729 -0.053601920352215143 -0.053601920352215116 0.054380405710802708 0.053465538421265758 0.053057816557894814 0.065648567376035513
leaf_weight=111.22719906270504 25.740700587630275 12.022550284862517 21.602550156414509 74.695392370223999 17.501216173171997 6.8592662811279288 5.24532127380371 15.382913351058958 15.545144081115721 5.4533368349075326 11.183469586074352 26.389033652842045 11.731043994426727 2.90478539466858
leaf_count=2113 489 98 185 1481 347 136 104 305 248 87 151 453 216 16
internal_value=-0.000373258 -0.0183393 -0.0321718 0.0318782 0.00362388 -0.0191235 -0.0350479 0.0163165 -0.044677 -0.0160773 0.0189852 0.0286997 0.00418403 -0.0342247
internal_weight=363.484 233.442 180.395 130.042 55.3465 37.8453 30.986 36.9855 143.409 32.182 16.6368 53.0474 26.6584 14.9273
internal_count=6429 3872 3089 2557 1076 729 593 490 2599 486 238 783 330 114
is_linear=0
shrinkage=0.05


Tree=45
num_leaves=15
num_cat=0
split_feature=2 0 3 3 2 1 0 2 1 3 1 3 2 3
split_gain=79.3903 60.1777 42.8167 28.036 22.1072 16.3066 18.9816 12.6806 11.6856 17.8677 11.4074 14.509 15.8692 9.89384
threshold=1.5000000000000002 1.0000000180025095e-35 1.5000000000000002 1.0000000180025095e-35 2.5000000000000004 1.0000000180025095e-35 1.0000000180025095e-35 1.0000000180025095e-35 1.0000000180025095e-35 2.5000000000000004 1.0000000180025095e-35 1.0000000180025095e-35 1.0000000180025095e-35 1.0000000180025095e-35
decision_type=2 2 2 2 2 2 2 2 2 2 2 2 2 2
left_child=1 2 10 4 5 6 -2 8 9 -4 -1 -12 -13 -3
right_child=3 13 7 -5 -6 -7 -8 -9 -10 -11 11 12 -14 -15
leaf_value=-0.052799679855988615 -0.052799679855988602 0.0081565186076740567 -0.056532871828034938 0.052668846699392459 0.052668846699392459 0.052668846699392459 0.052668846699392459 0.052668846699392459 0.059233776652294505 0.066104435175406401 -0.053413928409739519 -0.053413928409739533 0.054148560122992843 0.053227917347103519
leaf_weight=105.19611362367868 23.851147480309013 24.17135688662529 12.775621376931673 70.37689770758152 16.211219772696495 6.6865268498659125 5.19528704881668 14.383248403668402 4.9865870848298064 3.8696667551994315 14.47874791175127 5.2649992406368247 9.8335061520338058 24.535161048173904
leaf_count=2095 475 312 125 1463 337 139 108 299 39 21 242 88 139 448
internal_value=-0.000175195 -0.0181637 -0.0321448 0.0321037 0.00424099 -0.0177296 -0.0339354 0.0162844 -0.00790805 -0.0280224 -0.0450864 -0.0176528 0.0166404 0.0308605
internal_weight=341.816 219.495 170.788 122.321 51.9442 35.733 29.0464 36.0151 21.6319 16.6453 134.773 29.5773 15.0985 48.7065
internal_count=6330 3808 3048 2522 1059 722 583 484 185 146 2564 469 227 760
is_linear=0
shrinkage=0.05


Tree=46
num_leaves=15
num_cat=0
split_feature=2 0 3 3 2 1 0 2 1 3 1 3 2 2
split_gain=75.1556 56.7727 40.6391 26.5987 20.9726 15.469 18.0058 12.041 11.0173 16.8339 10.8365 13.7542 15.0366 10.0196
threshold=1.5000000000000002 1.0000000180025095e-35 1.5000000000000002 1.0000000180025095e-35 2.5000000000000004 1.0000000180025095e-35 1.0000000180025095e-35 1.0000000180025095e-35 1.0000000180025095e-35 2.5000000000000004 1.0000000180025095e-35 1.0000000180025095e-35 1.0000000180025095e-35 1.0000000180025095e-35
decision_type=2 2 2 2 2 2 2 2 2 2 2 2 2 2
left_child=1 2 10 4 5 6 -2 8 9 -4 -1 -12 -13 -3
right_child=3 13 7 -5 -6 -7 -8 -9 -10 -11 11 12 -14 -15
leaf_value=-0.052655690449102323 -0.052655690449102316 0.0067536879959706232 -0.056173795191848876 0.052531915501796603 0.052531915501796603 0.052531915501796603 0.052531915501796603 0.052531915501796603 0.058705729095097782 0.065074284435992016 -0.053236365043290615 -0.053236365043290615 0.053929896526123872 0.052663586153037192
leaf_weight=100.33235970884562 22.748387046158317 23.407360896468163 12.228260748088362 67.114664226770401 15.45976886153221 6.3765812218189231 4.9544659852981559 13.716530829668043 4.7849711030721656 3.7377234399318686 13.817387245595455 5.024504452943801 9.3908879458904266 24.141579423099756
leaf_count=2095 475 255 125 1463 337 139 108 299 39 21 242 88 139 505
internal_value=-0.000174921 -0.0180094 -0.0320299 0.0320195 0.0042298 -0.0176819 -0.0338436 0.0161829 -0.00784412 -0.027789 -0.0449554 -0.0175903 0.016577 0.0300631
internal_weight=327.235 210.582 163.033 116.654 49.5392 34.0794 27.7029 34.4675 20.751 15.966 128.565 28.2328 14.4154 47.5489
internal_count=6330 3808 3048 2522 1059 722 583 484 185 146 2564 469 227 760
is_linear=0
shrinkage=0.05


Tree=47
num_leaves=15
num_cat=0
split_feature=2 0 3 3 2 1 0 2 1 3 1 3 2 3
split_gain=71.1556 53.5812 38.5766 25.2384 19.8989 14.6764 17.0826 11.4345 10.3925 15.8695 10.2947 13.041 14.2506 10.0018
threshold=1.5000000000000002 1.0000000180025095e-35 1.5000000000000002 1.0000000180025095e-35 2.5000000000000004 1.0000000180025095e-35 1.0000000180025095e-35 1.0000000180025095e-35 1.0000000180025095e-35 2.5000000000000004 1.0000000180025095e-35 1.0000000180025095e-35 1.0000000180025095e-35 1.0000000180025095e-35
decision_type=2 2 2 2 2 2 2 2 2 2 2 2 2 2
left_child=1 2 10 4 5 6 -2 8 9 -4 -1 -12 -13 -3
right_child=3 13 7 -5 -6 -7 -8 -9 -10 -11 11 12 -14 -15
leaf_value=-0.052519472589349685 -0.052519472589349671 0.0065585777940630396 -0.055836548155631507 0.052402341329810954 0.052402341329810954 0.052402341329810954 0.052402341329810954 0.052402341329810954 0.058212040815193739 0.064124570880837797 -0.05306857852991323 -0.053068578529913236 0.053723571794960935 0.052991490483574301
leaf_weight=95.680380444973707 21.693642344325784 23.687021020799875 11.700356379151346 63.995316009968519 14.741231370717285 6.0802111588418475 4.7241928428411475 13.079015370458363 4.5892269983887664 3.6067464351654044 13.184010669589043 4.7941856980323783 8.9663280323147774 22.723058961331844
leaf_count=2095 475 312 125 1463 337 139 108 299 39 21 242 88 139 448
internal_value=-0.000174514 -0.0178579 -0.0319213 0.0319399 0.00421921 -0.0176368 -0.0337567 0.0160876 -0.00778426 -0.0275706 -0.0448315 -0.0175314 0.016517 0.0292928
internal_weight=313.245 202.01 155.6 111.235 47.2393 32.498 26.4178 32.9753 19.8963 15.3071 122.625 26.9445 13.7605 46.4101
internal_count=6330 3808 3048 2522 1059 722 583 484 185 146 2564 469 227 760
is_linear=0
shrinkage=0.05


Tree=48
num_leaves=15
num_cat=0
split_feature=2 0 3 3 2 1 0 2 2 3 1 1 3 1
split_gain=67.3709 50.576 36.6226 23.9507 18.8827 13.9264 16.209 10.8595 10.1101 14.9393 14.9373 9.8077 14.9686 9.7807
threshold=1.5000000000000002 1.0000000180025095e-35 1.5000000000000002 1.0000000180025095e-35 2.5000000000000004 1.0000000180025095e-35 1.0000000180025095e-35 1.0000000180025095e-35 1.0000000180025095e-35 1.0000000180025095e-35 1.0000000180025095e-35 1.0000000180025095e-35 2.5000000000000004 1.0000000180025095e-35
decision_type=2 2 2 2 2 2 2 2 2 2 2 2 2 2
left_child=1 2 13 4 5 6 -2 11 9 10 -3 12 -4 -1
right_child=3 8 7 -5 -6 -7 -8 -9 -10 -11 -12 -13 -14 -15
leaf_value=-0.052390564809597355 -0.052390564809597334 -0.058052695211699236 -0.055519592914872032 0.052279694718675974 0.052279694718675974 0.052279694718675974 0.052279694718675974 0.052279694718675954 0.052455729594273331 0.053609009298498635 0.064343000441812223 0.05775002118051753 0.063247264604039719 -0.017475632126482309
leaf_weight=91.232277695089579 20.685122627764947 10.274598792195322 11.191653087735178 61.013430207967758 14.054358154535292 5.796901434659957 4.5040673017501822 12.46959373354912 22.355990294367075 9.4183333218097669 3.2912509441375724 4.3994462713599196 3.4772192090749732 25.71063881739974
leaf_count=2095 475 86 125 1463 337 139 108 299 505 150 19 39 21 469
internal_value=-0.000174145 -0.0177048 -0.0318188 0.0318644 0.00420919 -0.0175941 -0.0336745 0.015998 0.0285157 0.00523005 -0.0283579 -0.00772818 -0.0273662 -0.0447143
internal_weight=299.875 193.821 148.481 106.054 45.0404 30.9861 25.1892 31.5379 45.3402 22.9842 13.5658 19.0683 14.6689 116.943
internal_count=6330 3808 3048 2522 1059 722 583 484 760 255 105 185 146 2564
is_linear=0
shrinkage=0.05


Tree=49
num_leaves=15
num_cat=0
split_feature=2 0 3 3 2 1 0 2 1 3 2 2 3 1
split_gain=63.7749 47.6525 34.3592 22.7315 17.9206 13.2163 15.382 10.3141 10.0067 12.5617 13.4442 9.6239 14.1366 14.0678
threshold=1.5000000000000002 1.0000000180025095e-35 1.5000000000000002 1.0000000180025095e-35 2.5000000000000004 1.0000000180025095e-35 1.0000000180025095e-35 1.0000000180025095e-35 1.0000000180025095e-35 1.0000000180025095e-35 1.0000000180025095e-35 1.0000000180025095e-35 1.0000000180025095e-35 1.0000000180025095e-35
decision_type=2 2 2 2 2 2 2 2 2 2 2 2 2 2
left_child=1 2 8 4 5 6 -2 -4 -1 -10 -11 12 13 -3
right_child=3 11 7 -5 -6 -7 -8 -9 9 10 -12 -13 -14 -15
leaf_value=-0.052268550479617884 -0.052268550479617863 -0.057598522046501836 -0.00767557612148668 0.052163573351084382 0.052163573351084382 0.052163573351084382 0.052163573351084382 0.052163573351084375 -0.052859564009528182 -0.052859564009528195 0.053591018889430068 0.052330325572224883 0.053420633142205722 0.063449194924715624
leaf_weight=86.980293802917004 19.72106900066138 9.8486102968454379 18.267071485519409 58.163703873753548 13.397927686572073 5.5261482149362555 4.2936978936195365 11.887182131409647 12.383354306221008 4.5030379295349112 8.6899658367037773 21.315349709242582 8.9897895231842977 3.1737125366926184
leaf_count=2095 475 86 185 1463 337 139 108 299 242 88 139 505 150 19
internal_value=-0.000171445 -0.0175425 -0.0314858 0.031793 0.0041997 -0.0175537 -0.0335967 0.0159138 -0.0441843 -0.0166913 0.0172573 0.0283835 0.00519461 -0.0280976
internal_weight=287.141 186.038 142.711 101.103 42.9388 29.5409 24.0148 30.1543 112.557 25.5764 13.193 43.3275 22.0121 13.0223
internal_count=6330 3808 3048 2522 1059 722 583 484 2564 469 227 760 255 105
is_linear=0
shrinkage=0.05


Tree=50
num_leaves=15
num_cat=0
split_feature=2 0 3 3 2 1 0 2 3 1 1 3 2 2
split_gain=59.4597 41.8446 33.1411 21.3693 17.833 12.4628 14.6262 10.7862 15.5029 13.6971 10.2352 13.1411 12.3525 10.2246
threshold=1.5000000000000002 1.0000000180025095e-35 1.5000000000000002 1.0000000180025095e-35 2.5000000000000004 1.0000000180025095e-35 1.0000000180025095e-35 1.0000000180025095e-35 1.0000000180025095e-35 1.0000000180025095e-35 1.0000000180025095e-35 1.0000000180025095e-35 1.0000000180025095e-35 1.0000000180025095e-35
decision_type=2 2 2 2 2 2 2 2 2 2 2 2 2 2
left_child=1 2 10 4 5 6 -2 8 9 -3 -1 -12 -13 -4
right_child=3 7 13 -5 -6 -7 -8 -9 -10 -11 11 12 -14 -15
leaf_value=-0.05215302033713215 -0.052153020337132143 -0.05717322544853537 -0.0077266775958363112 0.052053612172309055 0.052053612172309055 0.052053612172309055 0.052053612172309055 0.052215489889477468 0.05324269555882917 0.062622360059239671 -0.052712335220309728 -0.052712335220309742 0.053403635435595759 0.052053612172309041
leaf_weight=82.046140182763338 18.997659087181098 10.862612575292589 18.106227308511734 54.910418517887592 13.414967671036718 5.1916682794690123 4.0927020013332358 20.393206521868706 9.0367659106850606 3.0577734857797614 12.153134733438492 4.0022371411323538 8.7121269404888153 11.823361337184908
leaf_count=2073 480 99 183 1449 354 137 108 506 158 19 249 82 146 312
internal_value=-8.75508e-05 -0.0170556 -0.030617 0.0315616 0.0045758 -0.0179443 -0.0336827 0.0257534 0.00224663 -0.0308587 -0.043636 -0.0155355 0.0200004 0.0158889
internal_weight=276.801 180.194 136.843 96.6074 41.697 28.282 23.0904 43.3504 22.9572 13.9204 106.914 24.8675 12.7144 29.9296
internal_count=6355 3827 3045 2528 1079 725 588 782 276 118 2550 477 228 495
is_linear=0
shrinkage=0.05


Tree=51
num_leaves=15
num_cat=0
split_feature=2 0 3 3 2 1 0 2 3 1 2 1 3 2
split_gain=56.3321 39.4896 31.6798 20.286 16.9283 11.8301 13.8832 10.2598 14.6744 12.9165 9.76471 9.72698 12.4658 11.7127
threshold=1.5000000000000002 1.0000000180025095e-35 1.5000000000000002 1.0000000180025095e-35 2.5000000000000004 1.0000000180025095e-35 1.0000000180025095e-35 1.0000000180025095e-35 1.0000000180025095e-35 1.0000000180025095e-35 1.0000000180025095e-35 1.0000000180025095e-35 1.0000000180025095e-35 1.0000000180025095e-35
decision_type=2 2 2 2 2 2 2 2 2 2 2 2 2 2
left_child=1 2 11 4 5 6 -2 8 9 -3 -4 -1 -13 -14
right_child=3 7 10 -5 -6 -7 -8 -9 -10 -11 -12 12 13 -15
leaf_value=-0.052043608165604618 -0.052043608165604598 -0.056774608997376345 -0.0073518429484087924 0.051949447260883443 0.051949447260883443 0.051949447260883443 0.051949447260883443 0.052102850214850886 0.053074561101718244 0.06185615877234845 0.051949447260883422 -0.05257306598880282 -0.052573065988802826 0.053226637894902243
leaf_weight=78.204631011933088 18.108163475990303 10.403544120490553 18.07863162457943 52.334491867572069 12.785652257502077 4.9481196589767924 3.9007074683904639 19.439496040344238 8.6225810050964338 2.9437554180622092 11.268710464239122 11.590270556509495 3.8168762475252143 8.3140928968787193
leaf_count=2073 480 99 183 1449 354 137 108 506 158 19 312 249 82 146
internal_value=-8.63831e-05 -0.0169276 -0.0303568 0.0314979 0.00456651 -0.0179071 -0.0336126 0.0256446 0.0022336 -0.0306105 0.0154185 -0.0435367 -0.0154912 0.0199379
internal_weight=264.76 172.683 131.273 92.0771 39.7426 26.957 22.0089 41.4094 21.9699 13.3473 29.3473 101.926 23.7212 12.131
internal_count=6355 3827 3045 2528 1079 725 588 782 276 118 495 2550 477 228
is_linear=0
shrinkage=0.05


Tree=52
num_leaves=15
num_cat=0
split_feature=2 0 3 3 2 1 0 2 3 1 2 1 3 2
split_gain=53.3717 37.2635 30.2964 19.2596 16.0711 11.2307 13.1794 9.75893 13.8939 12.1865 9.32659 9.24441 11.8268 11.1079
threshold=1.5000000000000002 1.0000000180025095e-35 1.5000000000000002 1.0000000180025095e-35 2.5000000000000004 1.0000000180025095e-35 1.0000000180025095e-35 1.0000000180025095e-35 1.0000000180025095e-35 1.0000000180025095e-35 1.0000000180025095e-35 1.0000000180025095e-35 1.0000000180025095e-35 1.0000000180025095e-35
decision_type=2 2 2 2 2 2 2 2 2 2 2 2 2 2
left_child=1 2 11 4 5 6 -2 8 9 -3 -4 -1 -13 -14
right_child=3 7 10 -5 -6 -7 -8 -9 -10 -11 -12 12 13 -15
leaf_value=-0.051939971180099104 -0.051939971180099076 -0.056400701638286581 -0.0069945314371345317 0.051850760125409005 0.051850760125409005 0.051850760125409005 0.051850760125409005 0.051996160045535568 0.052915634103720577 0.061145003779558518 0.051850760125408991 -0.052441285592167292 -0.052441285592167292 0.053059383402858151
leaf_weight=74.535233795642853 17.258520126342781 9.9601011425256747 18.052740678191185 49.87446990609169 12.184653103351591 4.7155295908451071 3.717351794242858 18.528405033051968 8.2260639816522581 2.8319258838891974 10.739016294479372 11.052010897547007 3.6396180465817451 7.932909183204174
leaf_count=2073 480 99 183 1449 354 137 108 506 158 19 312 249 82 146
internal_value=-8.52251e-05 -0.0167992 -0.0300936 0.0314375 0.0045577 -0.017872 -0.0335461 0.025542 0.00222136 -0.0303782 0.0149541 -0.0434428 -0.0154493 0.0198789
internal_weight=253.249 165.498 125.952 87.7505 37.8761 25.6914 20.9759 39.5465 21.0181 12.792 28.7918 97.1598 22.6245 11.5725
internal_count=6355 3827 3045 2528 1079 725 588 782 276 118 495 2550 477 228
is_linear=0
shrinkage=0.05


Tree=53
num_leaves=15
num_cat=0
split_feature=2 0 3 3 2 1 0 2 3 1 2 3 1 1
split_gain=50.5689 35.1589 28.9863 18.287 15.2588 10.6627 12.5125 9.28237 13.1583 11.5033 8.90895 9.22454 14.0765 8.78614
threshold=1.5000000000000002 1.0000000180025095e-35 1.5000000000000002 1.0000000180025095e-35 2.5000000000000004 1.0000000180025095e-35 1.0000000180025095e-35 1.0000000180025095e-35 1.0000000180025095e-35 1.0000000180025095e-35 1.0000000180025095e-35 2.5000000000000004 1.0000000180025095e-35 1.0000000180025095e-35
decision_type=2 2 2 2 2 2 2 2 2 2 2 2 2 2
left_child=1 2 13 4 5 6 -2 8 9 -3 11 12 -4 -1
right_child=3 7 10 -5 -6 -7 -8 -9 -10 -11 -12 -13 -14 -15
leaf_value=-0.051841779702468949 -0.051841779702468928 -0.056049692898620079 -0.055068447742186478 0.051757242693701667 0.051757242693701667 0.051757242693701667 0.051757242693701667 0.051895085285374114 0.052765361684807666 0.060483956594457558 0.051757242693701647 0.062197515656748241 0.057845495647766067 -0.015409634455028236
leaf_weight=71.03100598230958 16.44712150096894 9.5321707874536532 10.445987805724146 47.525618635118008 11.610813662409781 4.4934504851698867 3.542282134294509 17.658224441111088 7.8465956375002852 2.7225037366151801 10.23325949907303 3.8309838771820059 3.751466989517211 21.575583409518003
leaf_count=2073 480 99 125 1449 354 137 108 506 158 19 312 26 32 477
internal_value=-8.40772e-05 -0.0166703 -0.0298272 0.0313803 0.00454936 -0.0178386 -0.0334832 0.0254452 0.00220986 -0.0301605 0.0144961 -0.006654 -0.0252326 -0.0433538
internal_weight=242.247 158.628 120.868 83.6193 36.0937 24.4829 19.9894 37.7595 20.1013 12.2547 28.2617 18.0284 14.1975 92.6066
internal_count=6355 3827 3045 2528 1079 725 588 782 276 118 495 183 157 2550
is_linear=0
shrinkage=0.05


Tree=54
num_leaves=15
num_cat=0
split_feature=2 0 3 3 2 1 0 1 3 2 2 3 1 2
split_gain=47.8937 33.1258 27.1788 17.365 14.489 10.1245 11.8806 8.95246 11.3657 10.481 8.82898 12.4647 10.8631 8.46612
threshold=1.5000000000000002 1.0000000180025095e-35 1.5000000000000002 1.0000000180025095e-35 2.5000000000000004 1.0000000180025095e-35 1.0000000180025095e-35 1.0000000180025095e-35 1.0000000180025095e-35 1.0000000180025095e-35 1.0000000180025095e-35 1.0000000180025095e-35 1.0000000180025095e-35 1.0000000180025095e-35
decision_type=2 2 2 2 2 2 2 2 2 2 2 2 2 2
left_child=1 2 7 4 5 6 -2 -1 -9 -10 11 12 -3 -4
right_child=3 10 13 -5 -6 -7 -8 8 9 -11 -12 -13 -14 -15
leaf_value=-0.051748730268025692 -0.051748730268025671 -0.055719934146113592 -0.00661128186024204 0.051668607899464529 0.051668607899464529 0.051668607899464529 0.051668607899464529 -0.052281135943091243 -0.052281135943091243 0.052946343238752705 0.051799302442927443 0.052623226952028063 0.059868638816277277 0.051668607899464508
leaf_weight=67.685205806046724 15.672406554222112 9.1195834055542964 17.265886634588242 45.283360596746206 11.06301563233137 4.2814495526254168 3.3751573115587226 10.390361320227385 3.4217254146933556 7.6724472790956497 16.827298112213612 7.4835632443428031 2.6156656444072715 9.7504544556140917
leaf_count=2073 480 99 183 1449 354 137 108 249 82 146 506 158 19 312
internal_value=-8.21062e-05 -0.0165205 -0.0295118 0.0313261 0.00454145 -0.0178071 -0.0334236 -0.0428229 -0.0147028 0.0204915 0.0253538 0.00219904 -0.0299564 0.0144225
internal_weight=231.908 152.232 116.186 79.6754 34.392 23.329 19.0476 89.1697 21.4845 11.0942 36.0461 19.2188 11.7352 27.0163
internal_count=6355 3827 3045 2528 1079 725 588 2550 477 228 782 276 118 495
is_linear=0
shrinkage=0.05


Tree=55
num_leaves=15
num_cat=0
split_feature=2 0 3 3 2 1 0 2 3 1 1 3 2 2
split_gain=46.3293 32.8065 26.4952 16.8803 13.8056 9.23602 11.0969 7.97424 11.4727 10.1671 7.88578 9.65731 10.4215 7.80435
threshold=1.5000000000000002 1.0000000180025095e-35 1.5000000000000002 1.0000000180025095e-35 2.5000000000000004 1.0000000180025095e-35 1.0000000180025095e-35 1.0000000180025095e-35 1.0000000180025095e-35 1.0000000180025095e-35 1.0000000180025095e-35 1.0000000180025095e-35 1.0000000180025095e-35 1.0000000180025095e-35
decision_type=2 2 2 2 2 2 2 2 2 2 2 2 2 2
left_child=1 2 10 4 5 6 -2 8 9 -3 -1 -12 -13 -4
right_child=3 7 13 -5 -6 -7 -8 -9 -10 -11 11 12 -14 -15
leaf_value=-0.051660540399564775 -0.051660540399564747 -0.055409936964259825 -0.0056400986792098208 0.051584579006430133 0.051584579006430133 0.051584579006430133 0.051584579006430133 0.051714897357877335 0.052488753243051356 0.059295161455232726 -0.052164941907855693 -0.052164941907855693 0.052794400831378097 0.051584579006430112
leaf_weight=64.895727816969156 14.839531240984803 8.3697103336453456 17.11218024417758 44.393787916749716 10.361527964472769 3.8706857338547698 3.156097598373889 16.248288964852691 7.1815291643142691 2.5115506201982489 9.586841344833374 3.5801482200622559 6.9678331464529037 9.1407732330262679
leaf_count=2086 477 95 180 1491 348 130 106 511 159 19 241 90 139 307
internal_value=0.000118077 -0.0164439 -0.0296228 0.0315888 0.00404466 -0.0184825 -0.0335533 0.0263001 0.00343841 -0.0289344 -0.0431791 -0.0158428 0.0171696 0.0142844
internal_weight=222.216 145.595 111.284 76.6216 32.2278 21.8663 17.9956 34.3111 18.0628 10.8813 85.0306 20.1348 10.548 26.253
internal_count=6379 3827 3043 2552 1061 713 583 784 273 114 2556 470 229 487
is_linear=0
shrinkage=0.05


Tree=56
num_leaves=15
num_cat=0
split_feature=2 0 3 3 2 1 0 2 3 1 1 3 2 2
